{"forest":{"classes":[0,1,2,3,4],"max_depth":8,"n_classes":5,"n_estimators":50,"trees":[{"children_left":[1,2,3,4,5,6,7,8,-1,-1,-1,-1,13,14,-1,16,-1,-1,-1,-1,21,22,23,24,25,-1,-1,28,-1,-1,-1,32,-1,34,-1,-1,37,-1,-1,40,41,42,43,44,45,-1,-1,48,-1,-1,51,52,-1,-1,55,-1,-1,58,59,60,-1,-1,63,-1,-1,66,-1,68,-1,-1,71,72,73,74,-1,-1,77,-1,-1,80,81,-1,-1,-1,85,86,87,-1,-1,90,-1,-1,93,94,-1,-1,-1,98,99,100,101,-1,-1,104,105,-1,-1,108,-1,-1,111,112,-1,-1,-1,-1,117,118,119,120,121,122,-1,124,-1,-1,-1,128,129,130,-1,-1,133,-1,-1,-1,137,138,-1,140,-1,142,-1,-1,-1,146,147,148,149,-1,151,-1,-1,154,155,-1,-1,158,-1,-1,161,162,163,-1,-1,-1,167,-1,169,-1,-1,-1,173,174,175,176,-1,178,179,-1,-1,-1,-1,-1,-1],"children_right":[116,39,20,19,12,11,10,9,-1,-1,-1,-1,18,15,-1,17,-1,-1,-1,-1,36,31,30,27,26,-1,-1,29,-1,-1,-1,33,-1,35,-1,-1,38,-1,-1,97,70,57,50,47,46,-1,-1,49,-1,-1,54,53,-1,-1,56,-1,-1,65,62,61,-1,-1,64,-1,-1,67,-1,69,-1,-1,84,79,76,75,-1,-1,78,-1,-1,83,82,-1,-1,-1,92,89,88,-1,-1,91,-1,-1,96,95,-1,-1,-1,115,110,103,102,-1,-1,107,106,-1,-1,109,-1,-1,114,113,-1,-1,-1,-1,172,145,136,127,126,123,-1,125,-1,-1,-1,135,132,131,-1,-1,134,-1,-1,-1,144,139,-1,141,-1,143,-1,-1,-1,171,160,153,150,-1,152,-1,-1,157,156,-1,-1,159,-1,-1,166,165,164,-1,-1,-1,168,-1,170,-1,-1,-1,184,183,182,177,-1,181,180,-1,-1,-1,-1,-1,-1],"feature":[16,29,9,18,25,20,7,0,-2,-2,-2,-2,10,6,-2,6,-2,-2,-2,-2,3,21,20,21,5,-2,-2,12,-2,-2,-2,18,-2,0,-2,-2,13,-2,-2,13,20,19,10,4,11,-2,-2,10,-2,-2,11,21,-2,-2,10,-2,-2,21,16,24,-2,-2,13,-2,-2,17,-2,19,-2,-2,11,9,21,2,-2,-2,6,-2,-2,22,6,-2,-2,-2,7,20,25,-2,-2,4,-2,-2,20,13,-2,-2,-2,11,22,0,6,-2,-2,0,18,-2,-2,21,-2,-2,5,10,-2,-2,-2,-2,9,5,20,18,15,12,-2,16,-2,-2,-2,22,11,12,-2,-2,24,-2,-2,-2,16,25,-2,11,-2,17,-2,-2,-2,15,17,20,22,-2,9,-2,-2,18,25,-2,-2,6,-2,-2,22,16,7,-2,-2,-2,25,-2,21,-2,-2,-2,2,23,8,0,-2,20,29,-2,-2,-2,-2,-2,-2],"leaf_values":[[0.195625,0.132375,0.164875,0.147,0.360125],[0.24410933081998115,0.16195413132265157,0.195727301288093,0.16258246936852028,0.235626767200754],[0.0,0.0,0.0,0.0670391061452514,0.9329608938547486],[0.0,0.0,0.0,0.10714285714285714,0.8928571428571429],[0.0,0.0,0.0,0.12060301507537688,0.8793969849246231],[0.0,0.0,0.0,0.23863636363636365,0.7613636363636364],[0.0,0.0,0.0,0.4117647058823529,0.5882352941176471],[0.0,0.0,0.0,0.6363636363636364,0.36363636363636365],[0.0,0.0,0.0,0.631578947368421,0.3684210526315789],[0.0,0.0,0.0,0.6428571428571429,0.35714285714285715],[0.0,0.0,0.0,0.0,1.0],[0.0,0.0,0.0,0.0,1.0],[0.0,0.0,0.0,0.02702702702702703,0.972972972972973],[0.0,0.0,0.0,0.06521739130434782,0.9347826086956522],[0.0,0.0,0.0,0.0,1.0],[0.0,0.0,0.0,0.14285714285714285,0.8571428571428571],[0.0,0.0,0.0,1.0,0.0],[0.0,0.0,0.0,0.0,1.0],[0.0,0.0,0.0,0.0,1.0],[0.0,0.0,0.0,0.0,1.0],[0.0,0.0,0.0,0.038338658146964855,0.9616613418530351],[0.0,0.0,0.0,0.02912621359223301,0.970873786407767],[0.0,0.0,0.0,0.057971014492753624,0.9420289855072463],[0.0,0.0,0.0,0.0851063829787234,0.9148936170212766],[0.0,0.0,0.0,0.025974025974025976,0.974025974025974],[0.0,0.0,0.0,0.25,0.75],[0.0,0.0,0.0,0.0,1.0],[0.0,0.0,0.0,0.35294117647058826,0.6470588235294118],[0.0,0.0,0.0,0.2,0.8],[0.0,0.0,0.0,0.5714285714285714,0.42857142857142855],[0.0,0.0,0.0,0.0,1.0],[0.0,0.0,0.0,0.005847953216374269,0.9941520467836257],[0.0,0.0,0.0,0.0,1.0],[0.0,0.0,0.0,0.08333333333333333,0.9166666666666666],[0.0,0.0,0.0,1.0,0.0],[0.0,0.0,0.0,0.0,1.0],[0.0,0.0,0.0,0.75,0.25],[0.0,0.0,0.0,1.0,0.0],[0.0,0.0,0.0,0.0,1.0],[0.26659804426145134,0.17687424944244295,0.2137587922456682,0.17138445702521873,0.17138445702521873],[0.28482404692082114,0.18896627565982405,0.2283724340175953,0.17870234604105573,0.11913489736070382],[0.4081237911025145,0.1282122133185963,0.15335728101685547,0.18789720917380492,0.1224095053882288],[0.4456849728424864,0.140012070006035,0.16626433313216657,0.18889559444779722,0.05914302957151479],[0.5341036153559449,0.13753261274692508,0.13529631010063362,0.1427506522549385,0.050316809541557955],[0.577005577005577,0.141999141999142,0.1402831402831403,0.1111111111111111,0.029601029601029602],[0.0,0.027777777777777776,0.14444444444444443,0.5222222222222223,0.3055555555555556],[0.6252905625290562,0.1515574151557415,0.1399349139934914,0.07670850767085077,0.006508600650860065],[0.25,0.10795454545454546,0.10227272727272728,0.3522727272727273,0.1875],[0.0,0.0,0.07874015748031496,0.8188976377952756,0.10236220472440945],[0.39111111111111113,0.1688888888888889,0.11555555555555555,0.08888888888888889,0.23555555555555555],[0.06973058637083994,0.15055467511885895,0.2979397781299525,0.38510301109350237,0.09667194928684628],[0.08644400785854617,0.18664047151277013,0.3693516699410609,0.25147347740667975,0.10609037328094302],[0.1,0.205,0.4375,0.22,0.0375],[0.03669724770642202,0.11926605504587157,0.11926605504587157,0.3669724770642202,0.3577981651376147],[0.0,0.0,0.0,0.9426229508196722,0.05737704918032787],[0.0,0.0,0.0,0.9829059829059829,0.017094017094017096],[0.0,0.0,0.0,0.0,1.0],[0.0,0.0,0.013114754098360656,0.17704918032786884,0.8098360655737705],[0.0,0.0,0.025,0.31875,0.65625],[0.0,0.0,0.0,0.03225806451612903,0.967741935483871],[0.0,0.0,0.0,0.0,1.0],[0.0,0.0,0.0,0.2857142857142857,0.7142857142857143],[0.0,0.0,0.04081632653061224,0.5,0.45918367346938777],[0.0,0.0,0.05128205128205128,0.6282051282051282,0.32051282051282054],[0.0,0.0,0.0,0.0,1.0],[0.0,0.0,0.0,0.020689655172413793,0.9793103448275862],[0.0,0.0,0.0,0.0,1.0],[0.0,0.0,0.0,0.06976744186046512,0.9302325581395349],[0.0,0.0,0.0,0.25,0.75],[0.0,0.0,0.0,0.0,1.0],[0.041916167664670656,0.30865541643984756,0.37615677735438213,0.16058791507893305,0.11268372346216658],[0.0448456610366919,0.3296447291788002,0.4012813046010483,0.13803145020384391,0.08619685497961561],[0.04861111111111111,0.38055555555555554,0.4131944444444444,0.09166666666666666,0.06597222222222222],[0.092,0.464,0.2813333333333333,0.096,0.06666666666666667],[0.09362279511533243,0.47218453188602444,0.2862957937584803,0.09769335142469471,0.050203527815468114],[0.0,0.0,0.0,0.0,1.0],[0.0014492753623188406,0.2898550724637681,0.5565217391304348,0.08695652173913043,0.06521739130434782],[0.0025380710659898475,0.4720812182741117,0.37817258883248733,0.0583756345177665,0.08883248730964467],[0.0,0.0472972972972973,0.793918918918919,0.125,0.033783783783783786],[0.02527075812274368,0.06498194945848375,0.33935018050541516,0.37906137184115524,0.19133574007220217],[0.027559055118110236,0.07086614173228346,0.3700787401574803,0.41338582677165353,0.11811023622047244],[0.03723404255319149,0.0797872340425532,0.4946808510638298,0.2553191489361702,0.13297872340425532],[0.0,0.045454545454545456,0.015151515151515152,0.8636363636363636,0.07575757575757576],[0.0,0.0,0.0,0.0,1.0],[0.0,0.008333333333333333,0.016666666666666666,0.48333333333333334,0.49166666666666664],[0.0,0.0,0.018518518518518517,0.4351851851851852,0.5462962962962963],[0.0,0.0,0.024390243902439025,0.5487804878048781,0.4268292682926829],[0.0,0.0,0.0,0.04,0.96],[0.0,0.0,0.03508771929824561,0.7719298245614035,0.19298245614035087],[0.0,0.0,0.0,0.07692307692307693,0.9230769230769231],[0.0,0.0,0.0,0.18181818181818182,0.8181818181818182],[0.0,0.0,0.0,0.0,1.0],[0.0,0.08333333333333333,0.0,0.9166666666666666,0.0],[0.0,0.3333333333333333,0.0,0.6666666666666666,0.0],[0.0,1.0,0.0,0.0,0.0],[0.0,0.0,0.0,1.0,0.0],[0.0,0.0,0.0,1.0,0.0],[0.0,0.0,0.0,0.064343163538874,0.935656836461126],[0.0,0.0,0.0,0.4067796610169492,0.5932203389830508],[0.0,0.0,0.0,0.6388888888888888,0.3611111111111111],[0.0,0.0,0.0,0.8571428571428571,0.14285714285714285],[0.0,0.0,0.0,0.0,1.0],[0.0,0.0,0.0,1.0,0.0],[0.0,0.0,0.0,0.3333333333333333,0.6666666666666666],[0.0,0.0,0.0,0.1,0.9],[0.0,0.0,0.0,0.0,1.0],[0.0,0.0,0.0,1.0,0.0],[0.0,0.0,0.0,0.8,0.2],[0.0,0.0,0.0,0.0,1.0],[0.0,0.0,0.0,1.0,0.0],[0.0,0.0,0.0,0.043478260869565216,0.9565217391304348],[0.0,0.0,0.0,0.2,0.8],[0.0,0.0,0.0,0.0,1.0],[0.0,0.0,0.0,1.0,0.0],[0.0,0.0,0.0,0.0,1.0],[0.0,0.0,0.0,0.0,1.0],[0.006731946144430845,0.017135862913096694,0.04467564259485924,0.08629130966952264,0.8451652386780906],[0.01896551724137931,0.04310344827586207,0.11896551724137931,0.21724137931034482,0.6017241379310345],[0.011627906976744186,0.031007751937984496,0.046511627906976744,0.08914728682170543,0.8217054263565892],[0.02158273381294964,0.05755395683453238,0.08633093525179857,0.1079136690647482,0.7266187050359713],[0.044444444444444446,0.17777777777777778,0.2,0.26666666666666666,0.3111111111111111],[0.05128205128205128,0.20512820512820512,0.23076923076923078,0.3076923076923077,0.20512820512820512],[0.0,0.0,0.0,0.0,1.0],[0.0625,0.25,0.28125,0.375,0.03125],[0.10526315789473684,0.42105263157894735,0.3157894736842105,0.10526315789473684,0.05263157894736842],[0.0,0.0,0.23076923076923078,0.7692307692307693,0.0],[0.0,0.0,0.0,0.0,1.0],[0.010638297872340425,0.0,0.031914893617021274,0.031914893617021274,0.925531914893617],[0.041666666666666664,0.0,0.125,0.125,0.7083333333333334],[0.2,0.0,0.2,0.4,0.2],[0.5,0.0,0.5,0.0,0.0],[0.0,0.0,0.0,0.6666666666666666,0.3333333333333333],[0.0,0.0,0.10526315789473684,0.05263157894736842,0.8421052631578947],[0.0,0.0,0.0,0.0,1.0],[0.0,0.0,0.6666666666666666,0.3333333333333333,0.0],[0.0,0.0,0.0,0.0,1.0],[0.0,0.0,0.0,0.06722689075630252,0.9327731092436975],[0.0,0.0,0.0,0.1509433962264151,0.8490566037735849],[0.0,0.0,0.0,0.0,1.0],[0.0,0.0,0.0,0.36363636363636365,0.6363636363636364],[0.0,0.0,0.0,1.0,0.0],[0.0,0.0,0.0,0.06666666666666667,0.9333333333333333],[0.0,0.0,0.0,0.0,1.0],[0.0,0.0,0.0,0.25,0.75],[0.0,0.0,0.0,0.0,1.0],[0.024844720496894408,0.052795031055900624,0.17701863354037267,0.3198757763975155,0.4254658385093168],[0.02952029520295203,0.06273062730627306,0.21033210332103322,0.3800738007380074,0.3173431734317343],[0.0449438202247191,0.09550561797752809,0.2696629213483146,0.449438202247191,0.1404494382022472],[0.0,0.0,0.0,0.9696969696969697,0.030303030303030304],[0.0,0.0,0.0,1.0,0.0],[0.0,0.0,0.0,0.9230769230769231,0.07692307692307693],[0.0,0.0,0.0,0.0,1.0],[0.0,0.0,0.0,1.0,0.0],[0.05517241379310345,0.11724137931034483,0.3310344827586207,0.3310344827586207,0.16551724137931034],[0.05925925925925926,0.1259259259259259,0.35555555555555557,0.34074074074074073,0.11851851851851852],[0.1044776119402985,0.1791044776119403,0.5223880597014925,0.13432835820895522,0.05970149253731343],[0.014705882352941176,0.07352941176470588,0.19117647058823528,0.5441176470588235,0.17647058823529413],[0.0,0.0,0.0,0.2,0.8],[0.0,0.0,0.0,0.0,1.0],[0.0,0.0,0.0,0.5,0.5],[0.0,0.0,0.0967741935483871,0.24731182795698925,0.6559139784946236],[0.0,0.0,0.16071428571428573,0.39285714285714285,0.44642857142857145],[0.0,0.0,0.20930232558139536,0.5116279069767442,0.27906976744186046],[0.0,0.0,1.0,0.0,0.0],[0.0,0.0,0.1282051282051282,0.5641025641025641,0.3076923076923077],[0.0,0.0,0.0,0.0,1.0],[0.0,0.0,0.0,0.02702702702702703,0.972972972972973],[0.0,0.0,0.0,0.0,1.0],[0.0,0.0,0.0,0.08333333333333333,0.9166666666666666],[0.0,0.0,0.0,1.0,0.0],[0.0,0.0,0.0,0.0,1.0],[0.0,0.0,0.0,0.0,1.0],[0.0,0.0028462998102466793,0.003795066413662239,0.014231499051233396,0.9791271347248577],[0.0,0.005415162454873646,0.007220216606498195,0.02707581227436823,0.9602888086642599],[0.0,0.011494252873563218,0.01532567049808429,0.05747126436781609,0.9157088122605364],[0.0,0.019736842105263157,0.02631578947368421,0.09868421052631579,0.8552631578947368],[0.0,0.0,0.0,0.0,1.0],[0.0,0.028037383177570093,0.037383177570093455,0.14018691588785046,0.794392523364486],[0.0,0.04918032786885246,0.06557377049180328,0.2459016393442623,0.639344262295082],[0.0,0.0,0.0,0.0,1.0],[0.0,0.0625,0.08333333333333333,0.3125,0.5416666666666666],[0.0,0.0,0.0,0.0,1.0],[0.0,0.0,0.0,0.0,1.0],[0.0,0.0,0.0,0.0,1.0],[0.0,0.0,0.0,0.0,1.0]],"threshold":[0.7612139582633972,-0.5,-0.3540828078985214,-0.5,-0.13824515044689178,-0.10567932203412056,0.07016237080097198,-0.28496960550546646,-2.0,-2.0,-2.0,-2.0,-0.5206150114536285,-0.17283950001001358,-2.0,-0.15432098507881165,-2.0,-2.0,-2.0,-2.0,0.5566413849592209,-0.049868879839777946,0.3644300401210785,-0.12121564894914627,-0.3139534890651703,-2.0,-2.0,-0.22374078631401062,-2.0,-2.0,-2.0,0.2924812436103821,-2.0,-0.1010548546910286,-2.0,-2.0,0.5610414445400238,-2.0,-2.0,1.0487655401229858,0.8448706865310669,0.00021396258671302348,0.5130816996097565,0.2924812436103821,-0.48122264444828033,-2.0,-2.0,-0.4725942015647888,-2.0,-2.0,1.1989461183547974,0.06898858398199081,-2.0,-2.0,1.0137490034103394,-2.0,-2.0,0.15142959356307983,-0.17148282751441002,0.46400000154972076,-2.0,-2.0,0.49562868475914,-2.0,-2.0,0.22168027609586716,-2.0,0.08821321278810501,-2.0,-2.0,0.5905382633209229,-0.2696465253829956,1.356161653995514,0.3465735912322998,-2.0,-2.0,0.8456790149211884,-2.0,-2.0,0.9181155264377594,1.52469140291214,-2.0,-2.0,-2.0,-0.2824516221880913,1.386986881494522,-0.1956648752093315,-2.0,-2.0,0.2924812436103821,-2.0,-2.0,1.0025670230388641,0.8502149283885956,-2.0,-2.0,-2.0,1.4505574107170105,-0.1538717970252037,0.03799184411764145,-0.3333333283662796,-2.0,-2.0,0.6782397329807281,1.292481243610382,-2.0,-2.0,0.21471553295850754,-2.0,-2.0,-0.3100775182247162,0.8236484527587891,-2.0,-2.0,-2.0,-2.0,0.30751246213912964,0.5465116500854492,0.3353704959154129,0.7924812436103821,0.75,-0.22700103372335434,-2.0,0.976584404706955,-2.0,-2.0,-2.0,0.9385103583335876,0.1596035435795784,0.1787029132246971,-2.0,-2.0,-0.2572307735681534,-2.0,-2.0,-2.0,1.1330320239067078,0.24427982978522778,-2.0,-0.35527557134628296,-2.0,0.32034112326800823,-2.0,-2.0,-2.0,0.5833333432674408,0.9724905788898468,-0.2142033725976944,1.250916063785553,-2.0,-0.23492076992988586,-2.0,-2.0,2.522197127342224,0.9234567582607269,-2.0,-2.0,-0.3333333283662796,-2.0,-2.0,0.19672168791294098,1.1838749647140503,1.026423156261444,-2.0,-2.0,-2.0,2.9152263402938843,-2.0,-0.21187588199973106,-2.0,-2.0,-2.0,0.3465735912322998,1.821928083896637,1.4422374963760376,0.7327101528644562,-2.0,0.11168669909238815,-0.5,-2.0,-2.0,-2.0,-2.0,-2.0,-2.0]},{"children_left":[1,2,3,4,5,6,7,-1,-1,10,11,-1,-1,14,-1,-1,17,18,19,-1,-1,22,-1,-1,25,26,-1,-1,29,-1,-1,32,33,34,35,-1,-1,38,-1,-1,41,-1,43,-1,-1,46,47,48,-1,-1,51,-1,-1,54,55,-1,-1,58,-1,-1,61,62,63,64,65,-1,-1,-1,-1,70,71,-1,-1,-1,75,76,-1,-1,-1,80,81,82,83,84,-1,86,-1,-1,89,90,-1,-1,-1,-1,95,96,97,-1,99,-1,-1,102,-1,-1,105,106,-1,-1,109,110,-1,-1,-1,114,115,-1,117,118,-1,-1,121,122,-1,-1,-1,126,127,-1,-1,-1,131,132,133,134,135,136,-1,138,-1,-1,141,142,-1,-1,-1,146,147,148,-1,-1,151,-1,-1,154,-1,156,-1,-1,159,160,-1,162,163,-1,-1,-1,167,168,-1,-1,171,172,-1,-1,175,-1,-1,178,179,-1,-1,-1,183,184,185,186,-1,188,-1,-1,191,-1,-1,194,195,-1,-1,-1,199,200,201,-1,-1,204,205,-1,207,-1,-1,210,211,-1,-1,214,-1,-1,-1],"children_right":[130,79,60,31,16,9,8,-1,-1,13,12,-1,-1,15,-1,-1,24,21,20,-1,-1,23,-1,-1,28,27,-1,-1,30,-1,-1,45,40,37,36,-1,-1,39,-1,-1,42,-1,44,-1,-1,53,50,49,-1,-1,52,-1,-1,57,56,-1,-1,59,-1,-1,74,69,68,67,66,-1,-1,-1,-1,73,72,-1,-1,-1,78,77,-1,-1,-1,113,94,93,88,85,-1,87,-1,-1,92,91,-1,-1,-1,-1,104,101,98,-1,100,-1,-1,103,-1,-1,108,107,-1,-1,112,111,-1,-1,-1,125,116,-1,120,119,-1,-1,124,123,-1,-1,-1,129,128,-1,-1,-1,182,177,158,145,140,137,-1,139,-1,-1,144,143,-1,-1,-1,153,150,149,-1,-1,152,-1,-1,155,-1,157,-1,-1,166,161,-1,165,164,-1,-1,-1,170,169,-1,-1,174,173,-1,-1,176,-1,-1,181,180,-1,-1,-1,198,193,190,187,-1,189,-1,-1,192,-1,-1,197,196,-1,-1,-1,216,203,202,-1,-1,209,206,-1,208,-1,-1,213,212,-1,-1,215,-1,-1,-1],"feature":[22,15,13,21,5,16,10,-2,-2,0,25,-2,-2,21,-2,-2,0,23,20,-2,-2,4,-2,-2,0,13,-2,-2,18,-2,-2,6,7,6,21,-2,-2,9,-2,-2,17,-2,9,-2,-2,3,4,18,-2,-2,25,-2,-2,10,25,-2,-2,16,-2,-2,13,5,11,20,10,-2,-2,-2,-2,21,6,-2,-2,-2,25,5,-2,-2,-2,7,8,10,8,4,-2,12,-2,-2,6,1,-2,-2,-2,-2,16,11,20,-2,8,-2,-2,8,-2,-2,0,4,-2,-2,22,16,-2,-2,-2,3,23,-2,5,5,-2,-2,25,17,-2,-2,-2,12,24,-2,-2,-2,18,19,11,17,14,16,-2,8,-2,-2,0,7,-2,-2,-2,0,8,3,-2,-2,22,-2,-2,9,-2,26,-2,-2,23,10,-2,15,10,-2,-2,-2,13,0,-2,-2,21,4,-2,-2,8,-2,-2,19,17,-2,-2,-2,16,16,14,25,-2,6,-2,-2,22,-2,-2,24,7,-2,-2,-2,21,24,10,-2,-2,16,29,-2,5,-2,-2,24,9,-2,-2,18,-2,-2,-2],"leaf_values":[[0.197,0.130625,0.16075,0.14925,0.362375],[0.26750171585449556,0.1719286204529856,0.19663692518874398,0.158716540837337,0.2052161976664379],[0.2847209515096066,0.18298261665141813,0.20841720036596523,0.16541628545288198,0.1584629460201281],[0.3030775223996883,0.19477989871445267,0.22185430463576158,0.1719906505648617,0.10829762368523568],[0.5410180900294489,0.13336137989061841,0.15523769457299116,0.1363062684055532,0.0340765671013883],[0.03954802259887006,0.062146892655367235,0.4293785310734463,0.2937853107344633,0.1751412429378531],[0.0,0.0,0.0,0.8695652173913043,0.13043478260869565],[0.0,0.0,0.0,1.0,0.0],[0.0,0.0,0.0,0.0,1.0],[0.045454545454545456,0.07142857142857142,0.4935064935064935,0.2077922077922078,0.18181818181818182],[0.06521739130434782,0.09782608695652174,0.2608695652173913,0.29347826086956524,0.2826086956521739],[0.0851063829787234,0.10638297872340426,0.44680851063829785,0.3191489361702128,0.0425531914893617],[0.044444444444444446,0.08888888888888889,0.06666666666666667,0.26666666666666666,0.5333333333333333],[0.016129032258064516,0.03225806451612903,0.8387096774193549,0.08064516129032258,0.03225806451612903],[0.01694915254237288,0.01694915254237288,0.8813559322033898,0.05084745762711865,0.03389830508474576],[0.0,0.3333333333333333,0.0,0.6666666666666666,0.0],[0.5813636363636364,0.1390909090909091,0.13318181818181818,0.12363636363636364,0.022727272727272728],[0.6569832402234637,0.11452513966480447,0.11340782122905028,0.10223463687150838,0.012849162011173185],[0.4816326530612245,0.1619047619047619,0.17687074829931973,0.1619047619047619,0.017687074829931974],[0.3409090909090909,0.1331168831168831,0.19155844155844157,0.3181818181818182,0.016233766233766232],[0.5831381733021077,0.18266978922716628,0.16627634660421545,0.04918032786885246,0.01873536299765808],[0.7791469194312797,0.08151658767772511,0.06919431279620854,0.06066350710900474,0.009478672985781991],[0.8122529644268774,0.08498023715415019,0.05928853754940711,0.03557312252964427,0.007905138339920948],[0.0,0.0,0.3023255813953488,0.6511627906976745,0.046511627906976744],[0.25121951219512195,0.24634146341463414,0.21951219512195122,0.21707317073170732,0.06585365853658537],[0.31761006289308175,0.279874213836478,0.23270440251572327,0.1320754716981132,0.03773584905660377],[0.38372093023255816,0.32945736434108525,0.12790697674418605,0.12403100775193798,0.03488372093023256],[0.03333333333333333,0.06666666666666667,0.6833333333333333,0.16666666666666666,0.05],[0.021739130434782608,0.13043478260869565,0.17391304347826086,0.5108695652173914,0.16304347826086957],[0.0,0.0,0.0,0.08333333333333333,0.9166666666666666],[0.025,0.15,0.2,0.575,0.05],[0.09793253536452666,0.24773304316285819,0.27928908233587235,0.20275661951396445,0.1722887196227784],[0.043478260869565216,0.04927536231884058,0.1391304347826087,0.17971014492753623,0.5884057971014492],[0.06787330316742081,0.07692307692307693,0.2171945701357466,0.24434389140271492,0.3936651583710407],[0.0,0.0,0.1388888888888889,0.32407407407407407,0.5370370370370371],[0.0,0.0,0.2777777777777778,0.46296296296296297,0.25925925925925924],[0.0,0.0,0.0,0.18518518518518517,0.8148148148148148],[0.13274336283185842,0.1504424778761062,0.2920353982300885,0.168141592920354,0.25663716814159293],[0.14285714285714285,0.17857142857142858,0.5357142857142857,0.05357142857142857,0.08928571428571429],[0.12280701754385964,0.12280701754385964,0.05263157894736842,0.2807017543859649,0.42105263157894735],[0.0,0.0,0.0,0.06451612903225806,0.9354838709677419],[0.0,0.0,0.0,0.0,1.0],[0.0,0.0,0.0,0.16326530612244897,0.8367346938775511],[0.0,0.0,0.0,0.47058823529411764,0.5294117647058824],[0.0,0.0,0.0,0.0,1.0],[0.10572139303482588,0.27611940298507465,0.29933665008291876,0.2060530679933665,0.11276948590381426],[0.1495433789954338,0.11187214611872145,0.16666666666666666,0.3504566210045662,0.22146118721461186],[0.16498740554156172,0.12342569269521411,0.18387909319899245,0.38287153652392947,0.14483627204030228],[0.0,0.0,0.006944444444444444,0.7569444444444444,0.2361111111111111],[0.20153846153846153,0.15076923076923077,0.2230769230769231,0.3,0.12461538461538461],[0.0,0.0,0.0,0.036585365853658534,0.9634146341463414],[0.0,0.0,0.0,0.0,1.0],[0.0,0.0,0.0,0.10344827586206896,0.896551724137931],[0.08072916666666667,0.3697916666666667,0.375,0.12369791666666667,0.05078125],[0.07678244972577697,0.4689213893967093,0.3473491773308958,0.08775137111517367,0.019195612431444242],[0.016339869281045753,0.10784313725490197,0.7189542483660131,0.13725490196078433,0.0196078431372549],[0.10025380710659898,0.6091370558375635,0.20304568527918782,0.06852791878172589,0.01903553299492386],[0.09049773755656108,0.1244343891402715,0.4434389140271493,0.21266968325791855,0.12895927601809956],[0.06097560975609756,0.07926829268292683,0.7621951219512195,0.07317073170731707,0.024390243902439025],[0.1079136690647482,0.1510791366906475,0.25539568345323743,0.2949640287769784,0.1906474820143885],[0.0,0.0,0.0,0.0634441087613293,0.9365558912386707],[0.0,0.0,0.0,0.37735849056603776,0.6226415094339622],[0.0,0.0,0.0,0.125,0.875],[0.0,0.0,0.0,0.08695652173913043,0.9130434782608695],[0.0,0.0,0.0,0.18181818181818182,0.8181818181818182],[0.0,0.0,0.0,0.0,1.0],[0.0,0.0,0.0,1.0,0.0],[0.0,0.0,0.0,0.0,1.0],[0.0,0.0,0.0,1.0,0.0],[0.0,0.0,0.0,0.5862068965517241,0.41379310344827586],[0.0,0.0,0.0,0.9444444444444444,0.05555555555555555],[0.0,0.0,0.0,0.0,1.0],[0.0,0.0,0.0,1.0,0.0],[0.0,0.0,0.0,0.0,1.0],[0.0,0.0,0.0,0.0035971223021582736,0.9964028776978417],[0.0,0.0,0.0,0.02564102564102564,0.9743589743589743],[0.0,0.0,0.0,0.0,1.0],[0.0,0.0,0.0,1.0,0.0],[0.0,0.0,0.0,0.0,1.0],[0.008264462809917356,0.005509641873278237,0.01928374655647383,0.05785123966942149,0.9090909090909091],[0.018404907975460124,0.006134969325153374,0.03680981595092025,0.12269938650306748,0.8159509202453987],[0.07317073170731707,0.0,0.14634146341463414,0.2926829268292683,0.4878048780487805],[0.1,0.0,0.2,0.4,0.3],[0.0,0.0,0.0,0.2857142857142857,0.7142857142857143],[0.0,0.0,0.0,0.0,1.0],[0.0,0.0,0.0,0.6666666666666666,0.3333333333333333],[0.0,0.0,0.0,0.0,1.0],[0.0,0.0,0.0,1.0,0.0],[0.13043478260869565,0.0,0.2608695652173913,0.43478260869565216,0.17391304347826086],[0.16666666666666666,0.0,0.05555555555555555,0.5555555555555556,0.2222222222222222],[0.1875,0.0,0.0625,0.625,0.125],[0.0,0.0,0.0,0.0,1.0],[0.0,0.0,1.0,0.0,0.0],[0.0,0.0,0.0,0.0,1.0],[0.0,0.00819672131147541,0.0,0.06557377049180328,0.9262295081967213],[0.0,0.05263157894736842,0.0,0.21052631578947367,0.7368421052631579],[0.0,0.07692307692307693,0.0,0.0,0.9230769230769231],[0.0,0.0,0.0,0.0,1.0],[0.0,0.25,0.0,0.0,0.75],[0.0,1.0,0.0,0.0,0.0],[0.0,0.0,0.0,0.0,1.0],[0.0,0.0,0.0,0.6666666666666666,0.3333333333333333],[0.0,0.0,0.0,1.0,0.0],[0.0,0.0,0.0,0.0,1.0],[0.0,0.0,0.0,0.038834951456310676,0.9611650485436893],[0.0,0.0,0.0,0.10344827586206896,0.896551724137931],[0.0,0.0,0.0,0.0,1.0],[0.0,0.0,0.0,1.0,0.0],[0.0,0.0,0.0,0.013513513513513514,0.9864864864864865],[0.0,0.0,0.0,0.058823529411764705,0.9411764705882353],[0.0,0.0,0.0,0.25,0.75],[0.0,0.0,0.0,0.0,1.0],[0.0,0.0,0.0,0.0,1.0],[0.0,0.005,0.005,0.005,0.985],[0.0,0.0,0.005263157894736842,0.005263157894736842,0.9894736842105263],[0.0,0.0,0.0,0.0,1.0],[0.0,0.0,0.023255813953488372,0.023255813953488372,0.9534883720930233],[0.0,0.0,0.16666666666666666,0.0,0.8333333333333334],[0.0,0.0,0.0,0.0,1.0],[0.0,0.0,1.0,0.0,0.0],[0.0,0.0,0.0,0.02702702702702703,0.972972972972973],[0.0,0.0,0.0,0.08333333333333333,0.9166666666666666],[0.0,0.0,0.0,0.0,1.0],[0.0,0.0,0.0,1.0,0.0],[0.0,0.0,0.0,0.0,1.0],[0.0,0.1,0.0,0.0,0.9],[0.0,0.5,0.0,0.0,0.5],[0.0,0.0,0.0,0.0,1.0],[0.0,1.0,0.0,0.0,0.0],[0.0,0.0,0.0,0.0,1.0],[0.007826887661141806,0.01979742173112339,0.06445672191528545,0.12384898710865562,0.7840699815837937],[0.015755329008341055,0.037998146431881374,0.12048192771084337,0.23354958294717332,0.5922150139017609],[0.01843817787418655,0.044468546637744036,0.14099783080260303,0.27006507592190887,0.5260303687635575],[0.0,0.0021413276231263384,0.07708779443254818,0.19271948608137046,0.728051391862955],[0.0,0.0,0.0,0.14363143631436315,0.8563685636856369],[0.0,0.0,0.0,0.6181818181818182,0.38181818181818183],[0.0,0.0,0.0,1.0,0.0],[0.0,0.0,0.0,0.27586206896551724,0.7241379310344828],[0.0,0.0,0.0,0.5384615384615384,0.46153846153846156],[0.0,0.0,0.0,0.0625,0.9375],[0.0,0.0,0.0,0.06050955414012739,0.9394904458598726],[0.0,0.0,0.0,0.12582781456953643,0.8741721854304636],[0.0,0.0,0.0,0.0,1.0],[0.0,0.0,0.0,0.25675675675675674,0.7432432432432432],[0.0,0.0,0.0,0.0,1.0],[0.0,0.01020408163265306,0.3673469387755102,0.37755102040816324,0.24489795918367346],[0.0,0.013513513513513514,0.4864864864864865,0.20270270270270271,0.2972972972972973],[0.0,0.01639344262295082,0.5573770491803278,0.2459016393442623,0.18032786885245902],[0.0,0.0,0.058823529411764705,0.35294117647058826,0.5882352941176471],[0.0,0.022727272727272728,0.75,0.20454545454545456,0.022727272727272728],[0.0,0.0,0.15384615384615385,0.0,0.8461538461538461],[0.0,0.0,1.0,0.0,0.0],[0.0,0.0,0.0,0.0,1.0],[0.0,0.0,0.0,0.9166666666666666,0.08333333333333333],[0.0,0.0,0.0,0.0,1.0],[0.0,0.0,0.0,0.9565217391304348,0.043478260869565216],[0.0,0.0,0.0,1.0,0.0],[0.0,0.0,0.0,0.0,1.0],[0.03736263736263736,0.08791208791208792,0.20659340659340658,0.34945054945054943,0.31868131868131866],[0.04722222222222222,0.10555555555555556,0.2611111111111111,0.4222222222222222,0.1638888888888889],[0.0,0.0,1.0,0.0,0.0],[0.05120481927710843,0.1144578313253012,0.19879518072289157,0.4578313253012048,0.17771084337349397],[0.056105610561056105,0.1254125412541254,0.21782178217821782,0.5016501650165016,0.09900990099009901],[0.0,0.0,0.0,1.0,0.0],[0.06115107913669065,0.1366906474820144,0.23741007194244604,0.4568345323741007,0.1079136690647482],[0.0,0.0,0.0,0.0,1.0],[0.0,0.021052631578947368,0.0,0.07368421052631578,0.9052631578947369],[0.0,0.0,0.0,0.25925925925925924,0.7407407407407407],[0.0,0.0,0.0,1.0,0.0],[0.0,0.0,0.0,0.0,1.0],[0.0,0.029411764705882353,0.0,0.0,0.9705882352941176],[0.0,0.3333333333333333,0.0,0.0,0.6666666666666666],[0.0,1.0,0.0,0.0,0.0],[0.0,0.0,0.0,0.0,1.0],[0.0,0.015384615384615385,0.0,0.0,0.9846153846153847],[0.0,0.16666666666666666,0.0,0.0,0.8333333333333334],[0.0,0.0,0.0,0.0,1.0],[0.0,0.0,0.0,0.01910828025477707,0.9808917197452229],[0.0,0.0,0.0,0.05357142857142857,0.9464285714285714],[0.0,0.0,0.0,0.0,1.0],[0.0,0.0,0.0,1.0,0.0],[0.0,0.0,0.0,0.0,1.0],[0.0,0.0018298261665141812,0.009149130832570906,0.01555352241537054,0.9734675205855444],[0.0,0.06666666666666667,0.2,0.26666666666666666,0.4666666666666667],[0.0,0.1111111111111111,0.3333333333333333,0.0,0.5555555555555556],[0.0,0.1111111111111111,0.6666666666666666,0.0,0.2222222222222222],[0.0,0.0,1.0,0.0,0.0],[0.0,0.3333333333333333,0.0,0.0,0.6666666666666666],[0.0,1.0,0.0,0.0,0.0],[0.0,0.0,0.0,0.0,1.0],[0.0,0.1111111111111111,0.0,0.0,0.8888888888888888],[0.0,1.0,0.0,0.0,0.0],[0.0,0.0,0.0,0.0,1.0],[0.0,0.0,0.0,0.6666666666666666,0.3333333333333333],[0.0,0.0,0.0,0.8888888888888888,0.1111111111111111],[0.0,0.0,0.0,0.0,1.0],[0.0,0.0,0.0,1.0,0.0],[0.0,0.0,0.0,0.0,1.0],[0.0,0.0,0.0037629350893697085,0.008466603951081843,0.9877704609595485],[0.0,0.0,0.012012012012012012,0.02702702702702703,0.960960960960961],[0.0,0.0,0.0,0.6,0.4],[0.0,0.0,0.0,1.0,0.0],[0.0,0.0,0.0,0.0,1.0],[0.0,0.0,0.012195121951219513,0.018292682926829267,0.9695121951219512],[0.0,0.0,0.0,0.2,0.8],[0.0,0.0,0.0,0.0,1.0],[0.0,0.0,0.0,0.6666666666666666,0.3333333333333333],[0.0,0.0,0.0,0.0,1.0],[0.0,0.0,0.0,1.0,0.0],[0.0,0.0,0.012578616352201259,0.012578616352201259,0.9748427672955975],[0.0,0.0,0.0,0.17647058823529413,0.8235294117647058],[0.0,0.0,0.0,0.5,0.5],[0.0,0.0,0.0,0.0,1.0],[0.0,0.0,0.013289036544850499,0.0033222591362126247,0.9833887043189369],[0.0,0.0,0.043478260869565216,0.014492753623188406,0.9420289855072463],[0.0,0.0,0.004310344827586207,0.0,0.9956896551724138],[0.0,0.0,0.0,0.0,1.0]],"threshold":[0.5308047831058502,0.006172839552164078,1.0496123433113098,-0.08453547954559326,-0.3604651093482971,-0.590105265378952,-0.34906288981437683,-2.0,-2.0,-0.226665697991848,-0.07994935102760792,-2.0,-2.0,-0.13149159401655197,-2.0,-2.0,0.11093279719352722,-0.5,-0.18042612075805664,-2.0,-2.0,0.7924812436103821,-2.0,-2.0,0.6991066038608551,0.5994730889797211,-2.0,-2.0,-0.5,-2.0,-2.0,-0.31481480598449707,1.5807140469551086,-0.35185185074806213,0.25439023971557617,-2.0,-2.0,0.13221295177936554,-2.0,-2.0,0.7633349597454071,-2.0,-0.009001882746815681,-2.0,-2.0,0.7719796597957611,1.1609640717506409,-0.5,-2.0,-2.0,-0.13271362707018852,-2.0,-2.0,-0.15368420630693436,-0.1952216923236847,-2.0,-2.0,-0.3334280997514725,-2.0,-2.0,1.1264511942863464,0.7441860437393188,1.3920148015022278,-0.10580305382609367,0.9404965937137604,-2.0,-2.0,-2.0,-2.0,-0.26922479271888733,-0.3333333283662796,-2.0,-2.0,-2.0,-0.1882086843252182,-0.1472868174314499,-2.0,-2.0,-2.0,0.07016237080097198,-0.09948892146348953,0.6565161645412445,-0.5994889289140701,-0.5,-2.0,0.3701256513595581,-2.0,-2.0,1.080246925354004,0.3465735912322998,-2.0,-2.0,-2.0,-2.0,-0.3334280997514725,0.49440933763980865,0.015889354050159454,-2.0,0.08411668986082077,-2.0,-2.0,0.3628631755709648,-2.0,-2.0,-0.08761899918317795,0.7924812436103821,-2.0,-2.0,-0.18150337785482407,0.04259717836976051,-2.0,-2.0,-2.0,0.21533827483654022,-0.5,-2.0,-0.20155038684606552,-0.24031008034944534,-2.0,-2.0,0.9294924437999725,1.7554731965065002,-2.0,-2.0,-2.0,0.7712609767913818,-0.2834615260362625,-2.0,-2.0,-2.0,1.1609640717506409,0.0002092050272040069,-0.4808923453092575,-0.045033857226371765,-0.8547556400299072,-0.05213473364710808,-2.0,-0.09948892146348953,-2.0,-2.0,-0.08761899918317795,-0.2824516221880913,-2.0,-2.0,-2.0,0.5412871837615967,0.5000000149011612,0.8413031101226807,-2.0,-2.0,0.8612049520015717,-2.0,-2.0,-0.1121046133339405,-2.0,0.5,-2.0,-2.0,0.953445315361023,-0.4902045875787735,-2.0,0.5357142984867096,-0.34906288981437683,-2.0,-2.0,-2.0,-0.2656167298555374,-0.46200816333293915,-2.0,-2.0,-0.22897209227085114,0.7924812436103821,-2.0,-2.0,-0.09948892146348953,-2.0,-2.0,0.13515982031822205,1.0426891148090363,-2.0,-2.0,-2.0,0.4972350299358368,0.38875575363636017,0.5,1.6477366089820862,-2.0,-0.3395061790943146,-2.0,-2.0,0.6093110144138336,-2.0,-2.0,0.0,0.6344494223594666,-2.0,-2.0,-2.0,0.12804565578699112,-0.8339703679084778,0.656660258769989,-2.0,-2.0,0.7612139582633972,-0.5,-2.0,-0.3294573575258255,-2.0,-2.0,-0.7171764969825745,0.033214256167411804,-2.0,-2.0,2.084962487220764,-2.0,-2.0,-2.0]},{"children_left":[1,2,3,-1,5,-1,7,8,-1,10,-1,-1,-1,14,15,16,17,18,19,-1,-1,22,-1,-1,25,26,-1,-1,-1,30,31,32,-1,-1,-1,36,-1,-1,39,40,41,42,-1,-1,45,-1,-1,48,49,-1,-1,52,-1,-1,55,56,57,-1,-1,-1,61,62,-1,-1,65,-1,-1,68,69,70,71,72,-1,-1,75,-1,-1,78,79,-1,-1,82,-1,-1,-1,-1,87,88,89,90,91,92,93,-1,-1,96,-1,-1,99,100,-1,-1,103,-1,-1,106,107,108,-1,-1,111,-1,-1,114,115,-1,-1,118,-1,-1,121,122,123,-1,125,-1,-1,128,-1,-1,131,132,-1,134,-1,-1,-1,138,139,-1,141,142,143,-1,-1,146,-1,-1,-1,150,151,152,153,-1,-1,-1,-1,158,159,-1,161,-1,-1,164,165,-1,-1,168,-1,-1,171,172,173,174,175,-1,177,-1,-1,180,181,-1,-1,-1,185,-1,187,188,-1,-1,191,-1,-1,194,-1,196,-1,-1,199,200,201,202,203,-1,-1,-1,207,208,-1,-1,211,-1,-1,214,215,216,-1,-1,-1,-1,221,222,223,224,-1,-1,-1,-1,-1],"children_right":[86,13,4,-1,6,-1,12,9,-1,11,-1,-1,-1,67,38,29,24,21,20,-1,-1,23,-1,-1,28,27,-1,-1,-1,35,34,33,-1,-1,-1,37,-1,-1,54,47,44,43,-1,-1,46,-1,-1,51,50,-1,-1,53,-1,-1,60,59,58,-1,-1,-1,64,63,-1,-1,66,-1,-1,85,84,77,74,73,-1,-1,76,-1,-1,81,80,-1,-1,83,-1,-1,-1,-1,170,137,120,105,98,95,94,-1,-1,97,-1,-1,102,101,-1,-1,104,-1,-1,113,110,109,-1,-1,112,-1,-1,117,116,-1,-1,119,-1,-1,130,127,124,-1,126,-1,-1,129,-1,-1,136,133,-1,135,-1,-1,-1,149,140,-1,148,145,144,-1,-1,147,-1,-1,-1,157,156,155,154,-1,-1,-1,-1,163,160,-1,162,-1,-1,167,166,-1,-1,169,-1,-1,198,193,184,179,176,-1,178,-1,-1,183,182,-1,-1,-1,186,-1,190,189,-1,-1,192,-1,-1,195,-1,197,-1,-1,220,213,206,205,204,-1,-1,-1,210,209,-1,-1,212,-1,-1,219,218,217,-1,-1,-1,-1,228,227,226,225,-1,-1,-1,-1,-1],"feature":[21,29,12,-2,13,-2,18,10,-2,5,-2,-2,-2,23,14,22,0,9,6,-2,-2,19,-2,-2,19,21,-2,-2,-2,25,22,6,-2,-2,-2,17,-2,-2,24,18,5,11,-2,-2,6,-2,-2,10,19,-2,-2,13,-2,-2,22,6,5,-2,-2,-2,22,17,-2,-2,21,-2,-2,10,16,22,21,6,-2,-2,4,-2,-2,13,0,-2,-2,20,-2,-2,-2,-2,22,13,15,3,19,16,21,-2,-2,24,-2,-2,20,6,-2,-2,20,-2,-2,19,4,17,-2,-2,6,-2,-2,20,24,-2,-2,21,-2,-2,0,17,24,-2,22,-2,-2,22,-2,-2,21,18,-2,0,-2,-2,-2,8,7,-2,12,0,19,-2,-2,5,-2,-2,-2,20,0,4,9,-2,-2,-2,-2,20,11,-2,5,-2,-2,22,3,-2,-2,17,-2,-2,21,16,15,5,20,-2,7,-2,-2,19,8,-2,-2,-2,24,-2,0,6,-2,-2,21,-2,-2,18,-2,13,-2,-2,0,16,10,23,25,-2,-2,-2,8,23,-2,-2,11,-2,-2,18,21,13,-2,-2,-2,-2,9,22,24,7,-2,-2,-2,-2,-2],"leaf_values":[[0.1995,0.125875,0.16125,0.14325,0.370125],[0.39177001127395716,0.10738444193912063,0.14937993235625704,0.16403607666290868,0.18742953776775648],[0.0,0.0,0.0,0.026022304832713755,0.9739776951672863],[0.0,0.0,0.0,0.0,1.0],[0.0,0.0,0.0,0.04375,0.95625],[0.0,0.0,0.0,1.0,0.0],[0.0,0.0,0.0,0.03164556962025317,0.9683544303797469],[0.0,0.0,0.0,0.29411764705882354,0.7058823529411765],[0.0,0.0,0.0,0.0,1.0],[0.0,0.0,0.0,0.625,0.375],[0.0,0.0,0.0,0.0,1.0],[0.0,0.0,0.0,1.0,0.0],[0.0,0.0,0.0,0.0,1.0],[0.4239097285757853,0.1161939615736505,0.16163464470875266,0.17535834095760902,0.1229033241842025],[0.46488294314381273,0.1274247491638796,0.1591973244147157,0.16220735785953178,0.0862876254180602],[0.0,0.016129032258064516,0.16129032258064516,0.510752688172043,0.3118279569892473],[0.0,0.0196078431372549,0.19607843137254902,0.6078431372549019,0.17647058823529413],[0.0,0.03333333333333333,0.3333333333333333,0.5,0.13333333333333333],[0.0,0.0,0.025,0.9,0.075],[0.0,0.0,0.125,0.5,0.375],[0.0,0.0,0.0,1.0,0.0],[0.0,0.06,0.58,0.18,0.18],[0.0,0.06818181818181818,0.6590909090909091,0.20454545454545456,0.06818181818181818],[0.0,0.0,0.0,0.0,1.0],[0.0,0.0,0.0,0.7619047619047619,0.23809523809523808],[0.0,0.0,0.0,0.8275862068965517,0.1724137931034483],[0.0,0.0,0.0,0.71875,0.28125],[0.0,0.0,0.0,0.9615384615384616,0.038461538461538464],[0.0,0.0,0.0,0.0,1.0],[0.0,0.0,0.0,0.06060606060606061,0.9393939393939394],[0.0,0.0,0.0,0.03225806451612903,0.967741935483871],[0.0,0.0,0.0,0.16666666666666666,0.8333333333333334],[0.0,0.0,0.0,1.0,0.0],[0.0,0.0,0.0,0.0,1.0],[0.0,0.0,0.0,0.0,1.0],[0.0,0.0,0.0,0.5,0.5],[0.0,0.0,0.0,1.0,0.0],[0.0,0.0,0.0,0.0,1.0],[0.4957203994293866,0.13480741797432239,0.15905848787446505,0.1390870185449358,0.07132667617689016],[0.4228813559322034,0.15974576271186441,0.17796610169491525,0.15593220338983052,0.08347457627118644],[0.0,0.022900763358778626,0.20610687022900764,0.5190839694656488,0.25190839694656486],[0.0,0.0,0.0,0.37209302325581395,0.627906976744186],[0.0,0.0,0.0,1.0,0.0],[0.0,0.0,0.0,0.0,1.0],[0.0,0.03409090909090909,0.3068181818181818,0.5909090909090909,0.06818181818181818],[0.0,0.0,0.0,0.3333333333333333,0.6666666666666666],[0.0,0.0379746835443038,0.34177215189873417,0.620253164556962,0.0],[0.4477344100493495,0.16778824585015703,0.17631224764468373,0.13458950201884254,0.07357559443696725],[0.5799392097264437,0.18601823708206686,0.12948328267477205,0.07173252279635259,0.03282674772036474],[0.5988700564971752,0.192090395480226,0.1337099811676083,0.060263653483992465,0.015065913370998116],[0.0,0.0,0.0,0.4230769230769231,0.5769230769230769],[0.07534246575342465,0.11643835616438356,0.3082191780821918,0.3116438356164384,0.18835616438356165],[0.11671087533156499,0.18037135278514588,0.46949602122015915,0.15119363395225463,0.08222811671087533],[0.0,0.0,0.014492753623188406,0.6038647342995169,0.38164251207729466],[0.8828828828828829,0.0022522522522522522,0.05855855855855856,0.04954954954954955,0.006756756756756757],[0.9924050632911392,0.0,0.002531645569620253,0.0,0.005063291139240506],[0.9974554707379135,0.0,0.002544529262086514,0.0,0.0],[0.0,0.0,1.0,0.0,0.0],[1.0,0.0,0.0,0.0,0.0],[0.0,0.0,0.0,0.0,1.0],[0.0,0.02040816326530612,0.5102040816326531,0.4489795918367347,0.02040816326530612],[0.0,0.038461538461538464,0.9615384615384616,0.0,0.0],[0.0,0.047619047619047616,0.9523809523809523,0.0,0.0],[0.0,0.0,1.0,0.0,0.0],[0.0,0.0,0.0,0.9565217391304348,0.043478260869565216],[0.0,0.0,0.0,0.0,1.0],[0.0,0.0,0.0,1.0,0.0],[0.0,0.0,0.18685121107266436,0.31141868512110726,0.5017301038062284],[0.0,0.0,0.226890756302521,0.37815126050420167,0.3949579831932773],[0.0,0.0,0.29347826086956524,0.4891304347826087,0.21739130434782608],[0.0,0.0,0.3591549295774648,0.5985915492957746,0.04225352112676056],[0.0,0.0,0.813953488372093,0.18604651162790697,0.0],[0.0,0.0,1.0,0.0,0.0],[0.0,0.0,0.0,1.0,0.0],[0.0,0.0,0.16161616161616163,0.7777777777777778,0.06060606060606061],[0.0,0.0,0.16666666666666666,0.8020833333333334,0.03125],[0.0,0.0,0.0,0.0,1.0],[0.0,0.0,0.07142857142857142,0.11904761904761904,0.8095238095238095],[0.0,0.0,0.13043478260869565,0.0,0.8695652173913043],[0.0,0.0,0.0,0.0,1.0],[0.0,0.0,0.2727272727272727,0.0,0.7272727272727273],[0.0,0.0,0.0,0.2631578947368421,0.7368421052631579],[0.0,0.0,0.0,0.45454545454545453,0.5454545454545454],[0.0,0.0,0.0,0.0,1.0],[0.0,0.0,0.0,0.0,1.0],[0.0,0.0,0.0,0.0,1.0],[0.046271338724168914,0.14061096136567836,0.1707097933513028,0.12668463611859837,0.5157232704402516],[0.0652931854199683,0.19809825673534073,0.23898573692551506,0.16259904912836767,0.3350237717908082],[0.07930367504835589,0.2413926499032882,0.2831721470019342,0.17833655705996132,0.21779497098646033],[0.0863157894736842,0.26273684210526316,0.3077894736842105,0.1928421052631579,0.1503157894736842],[0.10494571773220748,0.11821471652593486,0.11821471652593486,0.35705669481302776,0.30156815440289503],[0.12184873949579832,0.13725490196078433,0.13725490196078433,0.4005602240896359,0.2030812324929972],[0.0030959752321981426,0.04953560371517028,0.08359133126934984,0.6408668730650154,0.22291021671826625],[0.0,0.008928571428571428,0.0,0.9375,0.05357142857142857],[0.004739336492890996,0.07109004739336493,0.12796208530805686,0.4834123222748815,0.3127962085308057],[0.21994884910485935,0.20971867007672634,0.1815856777493606,0.2020460358056266,0.1867007672634271],[0.0,0.0,0.0,0.07407407407407407,0.9259259259259259],[0.2551928783382789,0.2433234421364985,0.21068249258160238,0.22255192878338279,0.06824925816023739],[0.0,0.0,0.0,0.08695652173913043,0.9130434782608695],[0.0,0.0,0.0,0.5,0.5],[0.0,0.0,0.0,0.3076923076923077,0.6923076923076923],[0.0,0.0,0.0,1.0,0.0],[0.0,0.0,0.0,0.010309278350515464,0.9896907216494846],[0.0,0.0,0.0,0.14285714285714285,0.8571428571428571],[0.0,0.0,0.0,0.0,1.0],[0.07632600258732213,0.34023285899094435,0.4094437257438551,0.10478654592496765,0.06921086675291074],[0.08005427408412483,0.3568521031207598,0.4294436906377205,0.09497964721845319,0.03867028493894165],[0.08812546676624347,0.3928304705003734,0.40179238237490666,0.0948469006721434,0.022404779686333084],[0.07786116322701689,0.4549718574108818,0.3921200750469043,0.06378986866791744,0.01125703564727955],[0.1282051282051282,0.15018315018315018,0.43956043956043955,0.21611721611721613,0.06593406593406594],[0.0,0.0,0.7037037037037037,0.0962962962962963,0.2],[0.0,0.0,0.0,0.0,1.0],[0.0,0.0,0.8482142857142857,0.11607142857142858,0.03571428571428571],[0.0,0.0,0.0,0.3055555555555556,0.6944444444444444],[0.0,0.0,0.0,0.7272727272727273,0.2727272727272727],[0.0,0.0,0.0,0.0,1.0],[0.0,0.0,0.0,0.8888888888888888,0.1111111111111111],[0.0,0.0,0.0,0.12,0.88],[0.0,0.0,0.0,0.35294117647058826,0.6470588235294118],[0.0,0.0,0.0,0.0,1.0],[0.0,0.0,0.004761904761904762,0.014285714285714285,0.9809523809523809],[0.0,0.0,0.0,0.1111111111111111,0.8888888888888888],[0.0,0.0,0.0,0.041666666666666664,0.9583333333333334],[0.0,0.0,0.0,0.0,1.0],[0.0,0.0,0.0,0.25,0.75],[0.0,0.0,0.0,0.0,1.0],[0.0,0.0,0.0,1.0,0.0],[0.0,0.0,0.0,0.6666666666666666,0.3333333333333333],[0.0,0.0,0.0,1.0,0.0],[0.0,0.0,0.0,0.0,1.0],[0.0,0.0,0.00546448087431694,0.0,0.994535519125683],[0.0,0.0,0.030303030303030304,0.0,0.9696969696969697],[0.0,0.0,0.0,0.0,1.0],[0.0,0.0,0.2,0.0,0.8],[0.0,0.0,1.0,0.0,0.0],[0.0,0.0,0.0,0.0,1.0],[0.0,0.0,0.0,0.0,1.0],[0.0017543859649122807,0.0017543859649122807,0.03859649122807018,0.0912280701754386,0.8666666666666667],[0.005917159763313609,0.005917159763313609,0.09467455621301775,0.20710059171597633,0.6863905325443787],[0.0,0.0,0.0,0.0,1.0],[0.007462686567164179,0.007462686567164179,0.11940298507462686,0.26119402985074625,0.6044776119402985],[0.009174311926605505,0.009174311926605505,0.14678899082568808,0.3211009174311927,0.5137614678899083],[0.0125,0.0125,0.2,0.4125,0.3625],[0.013888888888888888,0.013888888888888888,0.2222222222222222,0.4583333333333333,0.2916666666666667],[0.0,0.0,0.0,0.0,1.0],[0.0,0.0,0.0,0.06896551724137931,0.9310344827586207],[0.0,0.0,0.0,0.0,1.0],[0.0,0.0,0.0,0.16666666666666666,0.8333333333333334],[0.0,0.0,0.0,0.0,1.0],[0.0,0.0,0.014962593516209476,0.04239401496259352,0.942643391521197],[0.0,0.0,0.35714285714285715,0.21428571428571427,0.42857142857142855],[0.0,0.0,0.45454545454545453,0.2727272727272727,0.2727272727272727],[0.0,0.0,0.625,0.375,0.0],[0.0,0.0,0.0,1.0,0.0],[0.0,0.0,1.0,0.0,0.0],[0.0,0.0,0.0,0.0,1.0],[0.0,0.0,0.0,0.0,1.0],[0.0,0.0,0.002583979328165375,0.03617571059431524,0.9612403100775194],[0.0,0.0,0.0,0.12195121951219512,0.8780487804878049],[0.0,0.0,0.0,1.0,0.0],[0.0,0.0,0.0,0.08860759493670886,0.9113924050632911],[0.0,0.0,0.0,0.0,1.0],[0.0,0.0,0.0,0.16279069767441862,0.8372093023255814],[0.0,0.0,0.003278688524590164,0.013114754098360656,0.9836065573770492],[0.0,0.0,0.0,0.17647058823529413,0.8235294117647058],[0.0,0.0,0.0,0.0,1.0],[0.0,0.0,0.0,0.6,0.4],[0.0,0.0,0.003472222222222222,0.003472222222222222,0.9930555555555556],[0.0,0.0,0.0,0.0,1.0],[0.0,0.0,0.009433962264150943,0.009433962264150943,0.9811320754716981],[0.0,0.0007710100231303007,0.004626060138781804,0.03932151117964534,0.9552814186584425],[0.0,0.0026109660574412533,0.015665796344647518,0.10182767624020887,0.8798955613577023],[0.0,0.004149377593360996,0.024896265560165973,0.15767634854771784,0.8132780082987552],[0.0,0.02631578947368421,0.15789473684210525,0.42105263157894735,0.39473684210526316],[0.0,0.0,0.1,0.1,0.8],[0.0,0.0,0.0,1.0,0.0],[0.0,0.0,0.1111111111111111,0.0,0.8888888888888888],[0.0,0.0,0.0,0.0,1.0],[0.0,0.0,1.0,0.0,0.0],[0.0,0.03571428571428571,0.17857142857142858,0.5357142857142857,0.25],[0.0,0.041666666666666664,0.20833333333333334,0.625,0.125],[0.0,0.0,0.6,0.0,0.4],[0.0,0.05263157894736842,0.10526315789473684,0.7894736842105263,0.05263157894736842],[0.0,0.0,0.0,0.0,1.0],[0.0,0.0,0.0,0.10837438423645321,0.8916256157635468],[0.0,0.0,0.0,0.0,1.0],[0.0,0.0,0.0,0.25882352941176473,0.7411764705882353],[0.0,0.0,0.0,0.23214285714285715,0.7678571428571429],[0.0,0.0,0.0,0.3170731707317073,0.6829268292682927],[0.0,0.0,0.0,0.0,1.0],[0.0,0.0,0.0,0.3103448275862069,0.6896551724137931],[0.0,0.0,0.0,0.32142857142857145,0.6785714285714286],[0.0,0.0,0.0,0.0,1.0],[0.0,0.0,0.0,0.007042253521126761,0.9929577464788732],[0.0,0.0,0.0,0.0,1.0],[0.0,0.0,0.0,0.5,0.5],[0.0,0.0,0.0,1.0,0.0],[0.0,0.0,0.0,0.0,1.0],[0.0,0.0,0.0,0.01312910284463895,0.986870897155361],[0.0,0.0,0.0,0.10588235294117647,0.8941176470588236],[0.0,0.0,0.0,0.21621621621621623,0.7837837837837838],[0.0,0.0,0.0,0.5,0.5],[0.0,0.0,0.0,0.8,0.2],[0.0,0.0,0.0,0.0,1.0],[0.0,0.0,0.0,1.0,0.0],[0.0,0.0,0.0,0.0,1.0],[0.0,0.0,0.0,0.13793103448275862,0.8620689655172413],[0.0,0.0,0.0,0.2857142857142857,0.7142857142857143],[0.0,0.0,0.0,1.0,0.0],[0.0,0.0,0.0,0.0,1.0],[0.0,0.0,0.0,0.09090909090909091,0.9090909090909091],[0.0,0.0,0.0,0.0,1.0],[0.0,0.0,0.0,1.0,0.0],[0.0,0.0,0.0,0.020833333333333332,0.9791666666666666],[0.0,0.0,0.0,0.25,0.75],[0.0,0.0,0.0,0.5,0.5],[0.0,0.0,0.0,1.0,0.0],[0.0,0.0,0.0,0.0,1.0],[0.0,0.0,0.0,0.0,1.0],[0.0,0.0,0.0,0.0,1.0],[0.0,0.0,0.0,0.0036188178528347406,0.9963811821471653],[0.0,0.0,0.0,0.016042780748663103,0.983957219251337],[0.0,0.0,0.0,0.075,0.925],[0.0,0.0,0.0,0.3333333333333333,0.6666666666666666],[0.0,0.0,0.0,1.0,0.0],[0.0,0.0,0.0,0.0,1.0],[0.0,0.0,0.0,0.0,1.0],[0.0,0.0,0.0,0.0,1.0],[0.0,0.0,0.0,0.0,1.0]],"threshold":[-0.03873857110738754,-0.5,-0.20512963831424713,-2.0,-0.391677126288414,-2.0,0.2924812436103821,0.17695605009794235,-2.0,-0.3294573724269867,-2.0,-2.0,-2.0,1.564641535282135,-0.8547556400299072,1.1372466087341309,0.17823972553014755,0.1718413531780243,0.21604937687516212,-2.0,-2.0,0.25,-2.0,-2.0,0.014492753893136978,-0.18040429800748825,-2.0,-2.0,-2.0,1.9646090418100357,1.2884048223495483,0.8333333432674408,-2.0,-2.0,-2.0,0.8416140824556351,-2.0,-2.0,1.393333375453949,-0.5,-0.3527131676673889,-0.267416812479496,-2.0,-2.0,-0.29012346267700195,-2.0,-2.0,0.5152532458305359,0.07179487496614456,-2.0,-2.0,0.9370797872543335,-2.0,-2.0,-0.1596283856779337,0.48765429854393005,-0.3720930218696594,-2.0,-2.0,-2.0,1.1897220015525818,0.19757684879004955,-2.0,-2.0,-0.19769088178873062,-2.0,-2.0,0.961296409368515,0.4217170253396034,0.03481606533750892,-0.28515975177288055,1.0555555522441864,-2.0,-2.0,2.114409387111664,-2.0,-2.0,0.2293275035917759,-0.0496271550655365,-2.0,-2.0,0.490007184445858,-2.0,-2.0,-2.0,-2.0,0.830379843711853,0.6599165797233582,0.010869565419852734,0.7719796597957611,0.00021396258671302348,-0.17148282751441002,0.2454046830534935,-2.0,-2.0,-0.8392941057682037,-2.0,-2.0,-0.1055031530559063,-0.2530864179134369,-2.0,-2.0,-0.07145021110773087,-2.0,-2.0,0.009803921915590763,0.2924812436103821,-0.03972557187080383,-2.0,-2.0,-0.34567901492118835,-2.0,-2.0,-0.13448714092373848,-0.32946859300136566,-2.0,-2.0,0.1510329693555832,-2.0,-2.0,-0.226665697991848,0.9179946184158325,1.0057142972946167,-2.0,0.23412162065505981,-2.0,-2.0,0.3403716143220663,-2.0,-2.0,0.022077353671193123,1.4036774635314941,-2.0,0.584986686706543,-2.0,-2.0,-2.0,0.2410985603928566,-0.2824516221880913,-2.0,1.725460946559906,1.4210558533668518,0.02631578966975212,-2.0,-2.0,0.9108527302742004,-2.0,-2.0,-2.0,-0.15112145245075226,0.8756597340106964,0.2924812436103821,0.784013956785202,-2.0,-2.0,-2.0,-2.0,0.008440501922450494,0.5649453401565552,-2.0,0.1472868248820305,-2.0,-2.0,-0.37143394351005554,0.8413031101226807,-2.0,-2.0,1.4598835706710815,-2.0,-2.0,0.17922117561101913,0.5956463515758514,0.0066225165501236916,-0.20155038684606552,0.04952242711442523,-2.0,0.548577606678009,-2.0,-2.0,0.0004625346919056028,-0.3207424506545067,-2.0,-2.0,-2.0,-0.1688888855278492,-2.0,-0.28496960550546646,0.7160494029521942,-2.0,-2.0,0.0189663115888834,-2.0,-2.0,4.965553283691406,-2.0,1.2129661440849304,-2.0,-2.0,-0.226665697991848,0.4799206107854843,-0.5208913683891296,0.6609640717506409,-0.13637227192521095,-2.0,-2.0,-2.0,0.08411668986082077,-0.5,-2.0,-2.0,-0.3827476501464844,-2.0,-2.0,0.2924812436103821,0.9072813391685486,0.23512735962867737,-2.0,-2.0,-2.0,-2.0,0.4970049262046814,1.1637672185897827,-0.4747368395328522,1.7170091271400452,-2.0,-2.0,-2.0,-2.0,-2.0]},{"children_left":[1,2,3,4,5,6,7,8,-1,-1,-1,-1,-1,14,15,16,17,-1,-1,-1,-1,22,23,-1,25,-1,-1,28,-1,30,-1,-1,33,34,35,36,37,-1,-1,40,-1,-1,43,44,-1,-1,47,-1,-1,50,51,52,-1,-1,55,-1,-1,-1,59,60,61,62,-1,-1,65,-1,-1,68,69,-1,-1,72,-1,-1,75,76,77,-1,-1,80,-1,-1,83,84,-1,-1,-1,88,89,90,91,-1,-1,-1,95,96,97,-1,-1,-1,-1,102,103,104,105,106,-1,-1,109,-1,-1,112,113,-1,-1,-1,117,-1,119,-1,121,-1,-1,124,125,126,-1,-1,-1,130,-1,132,133,-1,-1,-1,-1],"children_right":[136,87,32,13,12,11,10,9,-1,-1,-1,-1,-1,21,20,19,18,-1,-1,-1,-1,27,24,-1,26,-1,-1,29,-1,31,-1,-1,58,49,42,39,38,-1,-1,41,-1,-1,46,45,-1,-1,48,-1,-1,57,54,53,-1,-1,56,-1,-1,-1,74,67,64,63,-1,-1,66,-1,-1,71,70,-1,-1,73,-1,-1,82,79,78,-1,-1,81,-1,-1,86,85,-1,-1,-1,101,94,93,92,-1,-1,-1,100,99,98,-1,-1,-1,-1,123,116,111,108,107,-1,-1,110,-1,-1,115,114,-1,-1,-1,118,-1,120,-1,122,-1,-1,129,128,127,-1,-1,-1,131,-1,135,134,-1,-1,-1,-1],"feature":[2,0,29,6,5,11,12,20,-2,-2,-2,-2,-2,8,22,12,21,-2,-2,-2,-2,24,25,-2,21,-2,-2,7,-2,10,-2,-2,5,22,13,4,10,-2,-2,6,-2,-2,4,6,-2,-2,24,-2,-2,13,24,22,-2,-2,9,-2,-2,-2,11,3,7,22,-2,-2,13,-2,-2,6,6,-2,-2,21,-2,-2,10,13,23,-2,-2,0,-2,-2,24,0,-2,-2,-2,17,20,7,8,-2,-2,-2,8,17,0,-2,-2,-2,-2,21,9,12,16,7,-2,-2,7,-2,-2,9,22,-2,-2,-2,17,-2,25,-2,4,-2,-2,18,25,0,-2,-2,-2,6,-2,9,17,-2,-2,-2,-2],"leaf_values":[[0.201625,0.13175,0.159625,0.148375,0.358625],[0.2201146288209607,0.14383187772925765,0.17426310043668122,0.16198144104803494,0.2998089519650655],[0.24328808446455505,0.15897435897435896,0.19230769230769232,0.16998491704374058,0.2354449472096531],[0.0,0.0,0.0,0.04984423676012461,0.9501557632398754],[0.0,0.0,0.0,0.007853403141361256,0.9921465968586387],[0.0,0.0,0.0,0.01639344262295082,0.9836065573770492],[0.0,0.0,0.0,0.03260869565217391,0.967391304347826],[0.0,0.0,0.0,0.02197802197802198,0.978021978021978],[0.0,0.0,0.0,0.5,0.5],[0.0,0.0,0.0,0.011235955056179775,0.9887640449438202],[0.0,0.0,0.0,1.0,0.0],[0.0,0.0,0.0,0.0,1.0],[0.0,0.0,0.0,0.0,1.0],[0.0,0.0,0.0,0.11153846153846154,0.8884615384615384],[0.0,0.0,0.0,0.2,0.8],[0.0,0.0,0.0,0.2987012987012987,0.7012987012987013],[0.0,0.0,0.0,0.4339622641509434,0.5660377358490566],[0.0,0.0,0.0,0.0,1.0],[0.0,0.0,0.0,0.46938775510204084,0.5306122448979592],[0.0,0.0,0.0,0.0,1.0],[0.0,0.0,0.0,0.0,1.0],[0.0,0.0,0.0,0.041379310344827586,0.9586206896551724],[0.0,0.0,0.0,0.016129032258064516,0.9838709677419355],[0.0,0.0,0.0,0.0,1.0],[0.0,0.0,0.0,0.07142857142857142,0.9285714285714286],[0.0,0.0,0.0,0.14285714285714285,0.8571428571428571],[0.0,0.0,0.0,0.0,1.0],[0.0,0.0,0.0,0.19047619047619047,0.8095238095238095],[0.0,0.0,0.0,0.0,1.0],[0.0,0.0,0.0,0.3076923076923077,0.6923076923076923],[0.0,0.0,0.0,0.0,1.0],[0.0,0.0,0.0,0.4444444444444444,0.5555555555555556],[0.26937207748830994,0.1760187040748163,0.2129258517034068,0.18286573146292584,0.15881763527054107],[0.03968253968253968,0.2802579365079365,0.31547619047619047,0.13938492063492064,0.2251984126984127],[0.05575411007862759,0.3052180128663331,0.4024303073624017,0.14152966404574696,0.09506790564689063],[0.061708860759493674,0.33781645569620256,0.4430379746835443,0.12341772151898735,0.03401898734177215],[0.0781563126252505,0.4148296593186373,0.40180360721442887,0.08917835671342686,0.01603206412825651],[0.09135399673735727,0.5742251223491027,0.27732463295269166,0.04404567699836868,0.013050570962479609],[0.05714285714285714,0.16103896103896104,0.6,0.16103896103896104,0.02077922077922078],[0.0,0.04887218045112782,0.5977443609022557,0.2518796992481203,0.10150375939849623],[0.0,0.061611374407582936,0.7156398104265402,0.16587677725118483,0.05687203791469194],[0.0,0.0,0.14545454545454545,0.5818181818181818,0.2727272727272727],[0.0,0.0,0.022222222222222223,0.3111111111111111,0.6666666666666666],[0.0,0.0,0.034482758620689655,0.47126436781609193,0.4942528735632184],[0.0,0.0,0.05357142857142857,0.625,0.32142857142857145],[0.0,0.0,0.0,0.1935483870967742,0.8064516129032258],[0.0,0.0,0.0,0.020833333333333332,0.9791666666666666],[0.0,0.0,0.0,0.0,1.0],[0.0,0.0,0.0,0.07692307692307693,0.9230769230769231],[0.0032414910858995136,0.22366288492706646,0.11831442463533225,0.13452188006482982,0.520259319286872],[0.005012531328320802,0.3458646616541353,0.18295739348370926,0.20802005012531327,0.2581453634085213],[0.007575757575757576,0.007575757575757576,0.11363636363636363,0.3181818181818182,0.553030303030303],[0.01098901098901099,0.01098901098901099,0.16483516483516483,0.42857142857142855,0.38461538461538464],[0.0,0.0,0.0,0.07317073170731707,0.926829268292683],[0.003745318352059925,0.5131086142322098,0.21722846441947566,0.15355805243445692,0.11235955056179775],[0.004347826086956522,0.5956521739130435,0.25217391304347825,0.05652173913043478,0.09130434782608696],[0.0,0.0,0.0,0.7567567567567568,0.24324324324324326],[0.0,0.0,0.0,0.0,1.0],[0.3859516616314199,0.12311178247734139,0.1608761329305136,0.20493454179254783,0.12512588116817724],[0.46601347213717087,0.13441518677281078,0.146050214329455,0.17299448867115738,0.08052663808940601],[0.5596774193548387,0.1310483870967742,0.1282258064516129,0.1310483870967742,0.05],[0.6351288056206089,0.12131147540983607,0.09742388758782201,0.09695550351288056,0.04918032786885246],[0.7162666666666667,0.12693333333333334,0.0704,0.06133333333333333,0.025066666666666668],[0.05,0.08076923076923077,0.2923076923076923,0.35384615384615387,0.2230769230769231],[0.0927536231884058,0.19130434782608696,0.3188405797101449,0.34202898550724636,0.05507246376811594],[0.020833333333333332,0.0,0.041666666666666664,0.78125,0.15625],[0.12048192771084337,0.26506024096385544,0.42570281124497994,0.17269076305220885,0.01606425702811245],[0.17048346055979643,0.1450381679389313,0.20229007633587787,0.3053435114503817,0.17684478371501272],[0.01818181818181818,0.08727272727272728,0.13090909090909092,0.509090909090909,0.2545454545454545],[0.03289473684210526,0.13157894736842105,0.19078947368421054,0.27631578947368424,0.3684210526315789],[0.0,0.032520325203252036,0.056910569105691054,0.7967479674796748,0.11382113821138211],[0.25244618395303325,0.1761252446183953,0.24070450097847357,0.19569471624266144,0.1350293542074364],[0.3231552162849873,0.16793893129770993,0.26717557251908397,0.1475826972010178,0.09414758269720101],[0.01694915254237288,0.2033898305084746,0.15254237288135594,0.3559322033898305,0.2711864406779661],[0.015580736543909348,0.0708215297450425,0.22946175637393768,0.3526912181303116,0.3314447592067989],[0.01818181818181818,0.08264462809917356,0.26776859504132233,0.4066115702479339,0.22479338842975208],[0.028205128205128206,0.1282051282051282,0.4076923076923077,0.21025641025641026,0.22564102564102564],[0.031609195402298854,0.14367816091954022,0.45689655172413796,0.23563218390804597,0.13218390804597702],[0.0,0.0,0.0,0.0,1.0],[0.0,0.0,0.013953488372093023,0.7627906976744186,0.22325581395348837],[0.0,0.0,0.019230769230769232,0.8846153846153846,0.09615384615384616],[0.0,0.0,0.0,0.4406779661016949,0.559322033898305],[0.0,0.0,0.0,0.0297029702970297,0.9702970297029703],[0.0,0.0,0.0,0.057692307692307696,0.9423076923076923],[0.0,0.0,0.0,0.3,0.7],[0.0,0.0,0.0,0.0,1.0],[0.0,0.0,0.0,0.0,1.0],[0.0,0.0,0.0028653295128939827,0.08595988538681948,0.9111747851002865],[0.0,0.0,0.0,0.021671826625386997,0.978328173374613],[0.0,0.0,0.0,0.004545454545454545,0.9954545454545455],[0.0,0.0,0.0,0.020833333333333332,0.9791666666666666],[0.0,0.0,0.0,1.0,0.0],[0.0,0.0,0.0,0.0,1.0],[0.0,0.0,0.0,0.0,1.0],[0.0,0.0,0.0,0.05825242718446602,0.941747572815534],[0.0,0.0,0.0,0.8571428571428571,0.14285714285714285],[0.0,0.0,0.0,0.6666666666666666,0.3333333333333333],[0.0,0.0,0.0,1.0,0.0],[0.0,0.0,0.0,0.0,1.0],[0.0,0.0,0.0,1.0,0.0],[0.0,0.0,0.0,0.0,1.0],[0.0,0.0,0.005333333333333333,0.14133333333333334,0.8533333333333334],[0.0,0.0,0.0072992700729927005,0.31386861313868614,0.6788321167883211],[0.0,0.0,0.01098901098901099,0.45054945054945056,0.5384615384615384],[0.0,0.0,0.017241379310344827,0.6379310344827587,0.3448275862068966],[0.0,0.0,0.0,0.8717948717948718,0.1282051282051282],[0.0,0.0,0.0,0.9444444444444444,0.05555555555555555],[0.0,0.0,0.0,0.0,1.0],[0.0,0.0,0.05263157894736842,0.15789473684210525,0.7894736842105263],[0.0,0.0,0.2,0.6,0.2],[0.0,0.0,0.0,0.0,1.0],[0.0,0.0,0.0,0.12121212121212122,0.8787878787878788],[0.0,0.0,0.0,0.03333333333333333,0.9666666666666667],[0.0,0.0,0.0,0.0,1.0],[0.0,0.0,0.0,0.25,0.75],[0.0,0.0,0.0,1.0,0.0],[0.0,0.0,0.0,0.043478260869565216,0.9565217391304348],[0.0,0.0,0.0,1.0,0.0],[0.0,0.0,0.0,0.022222222222222223,0.9777777777777777],[0.0,0.0,0.0,0.0,1.0],[0.0,0.0,0.0,0.07692307692307693,0.9230769230769231],[0.0,0.0,0.0,0.25,0.75],[0.0,0.0,0.0,0.0,1.0],[0.0,0.0,0.004201680672268907,0.04201680672268908,0.9537815126050421],[0.0,0.0,0.0,0.4166666666666667,0.5833333333333334],[0.0,0.0,0.0,0.7142857142857143,0.2857142857142857],[0.0,0.0,0.0,1.0,0.0],[0.0,0.0,0.0,0.0,1.0],[0.0,0.0,0.0,0.0,1.0],[0.0,0.0,0.004424778761061947,0.022123893805309734,0.9734513274336283],[0.0,0.0,0.0,0.0,1.0],[0.0,0.0,0.015151515151515152,0.07575757575757576,0.9090909090909091],[0.0,0.0,0.038461538461538464,0.19230769230769232,0.7692307692307693],[0.0,0.0,0.09090909090909091,0.45454545454545453,0.45454545454545453],[0.0,0.0,0.0,0.0,1.0],[0.0,0.0,0.0,0.0,1.0],[0.0,0.0,0.0,0.0,1.0]],"threshold":[0.3465735912322998,1.4289233088493347,-0.5,0.4135802388191223,0.09302325919270515,-0.42902015149593353,-0.22374078631401062,-0.1718854084610939,-2.0,-2.0,-2.0,-2.0,-2.0,-0.3207424506545067,1.0242730975151062,0.89894038438797,-0.31277482211589813,-2.0,-2.0,-2.0,-2.0,0.36666665971279144,-0.16185887902975082,-2.0,-0.04072577506303787,-2.0,-2.0,-0.549193799495697,-2.0,-0.18475006520748138,-2.0,-2.0,-0.3682170510292053,0.0903716217726469,0.43065324425697327,0.2924812436103821,-0.25315865874290466,-2.0,-2.0,1.5555555820465088,-2.0,-2.0,0.7924812436103821,1.2283950448036194,-2.0,-2.0,0.36666665971279144,-2.0,-2.0,0.7548300921916962,0.42000000178813934,0.9778715968132019,-2.0,-2.0,-0.23492076992988586,-2.0,-2.0,-2.0,0.6892505586147308,0.21533827483654022,0.9185552000999451,0.5612612664699554,-2.0,-2.0,0.024700161069631577,-2.0,-2.0,-0.2530864179134369,-0.2777777761220932,-2.0,-2.0,0.07149830460548401,-2.0,-2.0,1.0621246099472046,0.9258530139923096,2.704695463180542,-2.0,-2.0,0.03799184411764145,-2.0,-2.0,-0.34205979108810425,0.0636834166944027,-2.0,-2.0,-2.0,0.2359960377216339,0.5390789806842804,0.7639332413673401,1.5091389417648315,-2.0,-2.0,-2.0,0.3053702190518379,-0.04503401182591915,1.9446532726287842,-2.0,-2.0,-2.0,-2.0,0.28243280947208405,0.302395761013031,0.9127586185932159,1.259090006351471,1.991664469242096,-2.0,-2.0,1.8797361254692078,-2.0,-2.0,0.2626699209213257,0.6146771609783173,-2.0,-2.0,-2.0,0.3001774325966835,-2.0,0.337997242808342,-2.0,-0.5,-2.0,-2.0,0.2924812436103821,1.140740692615509,1.9412815570831299,-2.0,-2.0,-2.0,-0.1666666641831398,-2.0,0.84364253282547,1.2230777740478516,-2.0,-2.0,-2.0,-2.0]},{"children_left":[1,2,3,4,5,6,7,8,-1,-1,11,-1,-1,14,15,-1,-1,-1,19,20,-1,22,-1,-1,25,26,-1,-1,29,-1,-1,32,33,34,35,-1,-1,38,-1,-1,41,42,-1,-1,45,-1,-1,48,49,50,-1,-1,53,-1,-1,56,-1,-1,59,60,61,62,63,-1,-1,66,-1,-1,69,70,-1,-1,73,-1,-1,76,77,78,-1,-1,81,-1,-1,84,85,-1,-1,88,-1,-1,91,92,93,94,-1,-1,-1,-1,-1,100,101,102,103,104,105,-1,-1,-1,109,110,-1,-1,-1,114,-1,116,-1,-1,119,-1,121,122,123,-1,-1,-1,127,-1,129,-1,-1,132,133,134,135,136,-1,-1,-1,140,141,-1,-1,-1,-1,146,147,148,149,-1,-1,-1,-1,-1,155,156,157,158,159,160,-1,162,-1,-1,-1,166,167,168,-1,-1,171,-1,-1,-1,175,176,177,-1,179,-1,-1,-1,183,184,-1,186,-1,-1,189,-1,-1,-1,193,194,-1,-1,197,198,-1,200,-1,-1,-1],"children_right":[154,99,58,31,18,13,10,9,-1,-1,12,-1,-1,17,16,-1,-1,-1,24,21,-1,23,-1,-1,28,27,-1,-1,30,-1,-1,47,40,37,36,-1,-1,39,-1,-1,44,43,-1,-1,46,-1,-1,55,52,51,-1,-1,54,-1,-1,57,-1,-1,90,75,68,65,64,-1,-1,67,-1,-1,72,71,-1,-1,74,-1,-1,83,80,79,-1,-1,82,-1,-1,87,86,-1,-1,89,-1,-1,98,97,96,95,-1,-1,-1,-1,-1,131,118,113,108,107,106,-1,-1,-1,112,111,-1,-1,-1,115,-1,117,-1,-1,120,-1,126,125,124,-1,-1,-1,128,-1,130,-1,-1,145,144,139,138,137,-1,-1,-1,143,142,-1,-1,-1,-1,153,152,151,150,-1,-1,-1,-1,-1,192,191,174,165,164,161,-1,163,-1,-1,-1,173,170,169,-1,-1,172,-1,-1,-1,182,181,178,-1,180,-1,-1,-1,188,185,-1,187,-1,-1,190,-1,-1,-1,196,195,-1,-1,202,199,-1,201,-1,-1,-1],"feature":[28,16,20,18,22,0,21,9,-2,-2,0,-2,-2,20,23,-2,-2,-2,6,12,-2,20,-2,-2,10,20,-2,-2,10,-2,-2,15,17,22,0,-2,-2,24,-2,-2,21,11,-2,-2,23,-2,-2,5,8,16,-2,-2,7,-2,-2,20,-2,-2,11,25,3,8,25,-2,-2,13,-2,-2,21,18,-2,-2,16,-2,-2,24,22,15,-2,-2,6,-2,-2,3,16,-2,-2,23,-2,-2,12,10,10,10,-2,-2,-2,-2,-2,8,0,9,20,15,7,-2,-2,-2,18,10,-2,-2,-2,5,-2,22,-2,-2,29,-2,16,17,6,-2,-2,-2,17,-2,17,-2,-2,23,20,22,13,16,-2,-2,-2,16,21,-2,-2,-2,-2,9,2,17,12,-2,-2,-2,-2,-2,22,9,20,16,12,9,-2,12,-2,-2,-2,17,19,24,-2,-2,21,-2,-2,-2,23,10,16,-2,20,-2,-2,-2,3,25,-2,19,-2,-2,6,-2,-2,-2,8,13,-2,-2,20,12,-2,12,-2,-2,-2],"leaf_values":[[0.197875,0.13,0.16175,0.14825,0.362125],[0.22859205776173286,0.15018050541516245,0.18628158844765344,0.16375451263537907,0.2711913357400722],[0.2554874112330536,0.16768883150419625,0.20755326016785022,0.17608134280180762,0.19318915429309233],[0.3621238071935405,0.11402006361634451,0.15390261805725472,0.19231710300954244,0.17763640812331782],[0.0,0.006578947368421052,0.09868421052631579,0.3815789473684211,0.5131578947368421],[0.0,0.005291005291005291,0.10052910052910052,0.7724867724867724,0.12169312169312169],[0.0,0.005847953216374269,0.1111111111111111,0.8421052631578947,0.04093567251461988],[0.0,0.0,0.375,0.5,0.125],[0.0,0.0,0.0,0.8461538461538461,0.15384615384615385],[0.0,0.0,0.5555555555555556,0.3333333333333333,0.1111111111111111],[0.0,0.007633587786259542,0.030534351145038167,0.9465648854961832,0.015267175572519083],[0.0,0.0,0.0,1.0,0.0],[0.0,0.03125,0.125,0.78125,0.0625],[0.0,0.0,0.0,0.1111111111111111,0.8888888888888888],[0.0,0.0,0.0,0.2857142857142857,0.7142857142857143],[0.0,0.0,0.0,0.6666666666666666,0.3333333333333333],[0.0,0.0,0.0,0.0,1.0],[0.0,0.0,0.0,0.0,1.0],[0.0,0.007159904534606206,0.09785202863961814,0.2052505966587112,0.6897374701670644],[0.0,0.0,0.018691588785046728,0.07476635514018691,0.9065420560747663],[0.0,0.0,0.0,0.0,1.0],[0.0,0.0,0.14285714285714285,0.5714285714285714,0.2857142857142857],[0.0,0.0,0.2222222222222222,0.7777777777777778,0.0],[0.0,0.0,0.0,0.2,0.8],[0.0,0.009615384615384616,0.125,0.25,0.6153846153846154],[0.0,0.0,0.0,0.07425742574257425,0.9257425742574258],[0.0,0.0,0.0,0.12605042016806722,0.8739495798319328],[0.0,0.0,0.0,0.0,1.0],[0.0,0.02727272727272727,0.35454545454545455,0.5727272727272728,0.045454545454545456],[0.0,0.02830188679245283,0.36792452830188677,0.5943396226415094,0.009433962264150943],[0.0,0.0,0.0,0.0,1.0],[0.4254096004599023,0.13279678068410464,0.16355274504167863,0.15924116125323368,0.11899971256108077],[0.4553296364756624,0.1423290203327172,0.1725200246457178,0.16112138016019717,0.06869993838570548],[0.5647294589178357,0.15430861723446893,0.13306613226452907,0.11743486973947896,0.030460921843687375],[0.6235980260206371,0.1556751906684612,0.11843876177658143,0.0847913862718708,0.017496635262449527],[0.730660643704122,0.13269339356295878,0.07001693958215698,0.05815923207227555,0.00846979107848673],[0.2096069868995633,0.2445414847161572,0.3056768558951965,0.18777292576419213,0.05240174672489083],[0.07142857142857142,0.14285714285714285,0.2556390977443609,0.39097744360902253,0.13909774436090225],[0.010869565217391304,0.05434782608695652,0.021739130434782608,0.717391304347826,0.1956521739130435],[0.10344827586206896,0.1896551724137931,0.3793103448275862,0.21839080459770116,0.10919540229885058],[0.09187749667110519,0.10252996005326231,0.303595206391478,0.3062583222370173,0.19573901464713714],[0.1038961038961039,0.1185064935064935,0.3474025974025974,0.3051948051948052,0.125],[0.14253897550111358,0.16258351893095768,0.45657015590200445,0.18485523385300667,0.053452115812917596],[0.0,0.0,0.05389221556886228,0.6287425149700598,0.31736526946107785],[0.037037037037037035,0.02962962962962963,0.1037037037037037,0.3111111111111111,0.5185185185185185],[0.044642857142857144,0.03571428571428571,0.125,0.375,0.41964285714285715],[0.0,0.0,0.0,0.0,1.0],[0.008583690987124463,0.0,0.03862660944206009,0.13304721030042918,0.8197424892703863],[0.009259259259259259,0.0,0.041666666666666664,0.10185185185185185,0.8472222222222222],[0.0136986301369863,0.0,0.06164383561643835,0.14383561643835616,0.7808219178082192],[0.03278688524590164,0.0,0.08196721311475409,0.2786885245901639,0.6065573770491803],[0.0,0.0,0.047058823529411764,0.047058823529411764,0.9058823529411765],[0.0,0.0,0.0,0.014285714285714285,0.9857142857142858],[0.0,0.0,0.0,0.0,1.0],[0.0,0.0,0.0,0.5,0.5],[0.0,0.0,0.0,0.5294117647058824,0.47058823529411764],[0.0,0.0,0.0,1.0,0.0],[0.0,0.0,0.0,0.0,1.0],[0.04883831199620673,0.2716927453769559,0.31152204836415365,0.14461830251303937,0.2233285917496444],[0.05603917301414581,0.3117519042437432,0.3574537540805223,0.16376496191512513,0.11099020674646355],[0.006147540983606557,0.0430327868852459,0.5860655737704918,0.24385245901639344,0.12090163934426229],[0.0,0.0,0.16161616161616163,0.31313131313131315,0.5252525252525253],[0.0,0.0,0.2857142857142857,0.42857142857142855,0.2857142857142857],[0.0,0.0,0.14285714285714285,0.5142857142857142,0.34285714285714286],[0.0,0.0,1.0,0.0,0.0],[0.0,0.0,0.07017543859649122,0.22807017543859648,0.7017543859649122],[0.0,0.0,0.0,0.0,1.0],[0.0,0.0,0.125,0.40625,0.46875],[0.007712082262210797,0.05398457583547558,0.6940874035989717,0.2262210796915167,0.017994858611825194],[0.0,0.018518518518518517,0.0,0.9259259259259259,0.05555555555555555],[0.0,0.0,0.0,0.8695652173913043,0.13043478260869565],[0.0,0.03225806451612903,0.0,0.967741935483871,0.0],[0.008955223880597015,0.05970149253731343,0.8059701492537313,0.11343283582089553,0.011940298507462687],[0.00967741935483871,0.06129032258064516,0.8419354838709677,0.07741935483870968,0.00967741935483871],[0.0,0.04,0.36,0.56,0.04],[0.07407407407407407,0.4088888888888889,0.2748148148148148,0.1348148148148148,0.10740740740740741],[0.03731343283582089,0.007462686567164179,0.11194029850746269,0.291044776119403,0.5522388059701493],[0.07692307692307693,0.0,0.2153846153846154,0.5384615384615384,0.16923076923076924],[0.0847457627118644,0.0,0.23728813559322035,0.5932203389830508,0.0847457627118644],[0.0,0.0,0.0,0.0,1.0],[0.0,0.014492753623188406,0.014492753623188406,0.057971014492753624,0.9130434782608695],[0.0,0.014705882352941176,0.0,0.058823529411764705,0.9264705882352942],[0.0,0.0,1.0,0.0,0.0],[0.078125,0.453125,0.29276315789473684,0.11759868421052631,0.05838815789473684],[0.06882591093117409,0.19838056680161945,0.15789473684210525,0.38461538461538464,0.1902834008097166],[0.0,0.1032258064516129,0.13548387096774195,0.5548387096774193,0.2064516129032258],[0.18478260869565216,0.358695652173913,0.1956521739130435,0.09782608695652174,0.16304347826086957],[0.0804953560371517,0.5180598555211559,0.32714138286893707,0.04953560371517028,0.02476780185758514],[0.0948905109489051,0.610705596107056,0.2360097323600973,0.05596107055961071,0.0024330900243309003],[0.0,0.0,0.8367346938775511,0.013605442176870748,0.14965986394557823],[0.0,0.0,0.0,0.014760147601476014,0.985239852398524],[0.0,0.0,0.0,0.02702702702702703,0.972972972972973],[0.0,0.0,0.0,0.13333333333333333,0.8666666666666667],[0.0,0.0,0.0,0.07142857142857142,0.9285714285714286],[0.0,0.0,0.0,0.18181818181818182,0.8181818181818182],[0.0,0.0,0.0,0.0,1.0],[0.0,0.0,0.0,1.0,0.0],[0.0,0.0,0.0,0.0,1.0],[0.0,0.0,0.0,0.0,1.0],[0.0,0.0013717421124828531,0.0054869684499314125,0.05898491083676269,0.934156378600823],[0.0,0.005208333333333333,0.0,0.171875,0.8229166666666666],[0.0,0.0,0.0,0.06086956521739131,0.9391304347826087],[0.0,0.0,0.0,0.0392156862745098,0.9607843137254902],[0.0,0.0,0.0,0.2857142857142857,0.7142857142857143],[0.0,0.0,0.0,0.5,0.5],[0.0,0.0,0.0,1.0,0.0],[0.0,0.0,0.0,0.0,1.0],[0.0,0.0,0.0,0.0,1.0],[0.0,0.0,0.0,0.021052631578947368,0.9789473684210527],[0.0,0.0,0.0,0.4,0.6],[0.0,0.0,0.0,0.0,1.0],[0.0,0.0,0.0,0.6666666666666666,0.3333333333333333],[0.0,0.0,0.0,0.0,1.0],[0.0,0.0,0.0,0.23076923076923078,0.7692307692307693],[0.0,0.0,0.0,0.0,1.0],[0.0,0.0,0.0,0.75,0.25],[0.0,0.0,0.0,1.0,0.0],[0.0,0.0,0.0,0.0,1.0],[0.0,0.012987012987012988,0.0,0.33766233766233766,0.6493506493506493],[0.0,0.0,0.0,0.0,1.0],[0.0,0.015873015873015872,0.0,0.4126984126984127,0.5714285714285714],[0.0,0.023809523809523808,0.0,0.5714285714285714,0.40476190476190477],[0.0,0.03125,0.0,0.75,0.21875],[0.0,0.0,0.0,0.25,0.75],[0.0,0.041666666666666664,0.0,0.9166666666666666,0.041666666666666664],[0.0,0.0,0.0,0.0,1.0],[0.0,0.0,0.0,0.09523809523809523,0.9047619047619048],[0.0,0.0,0.0,0.0,1.0],[0.0,0.0,0.0,0.2857142857142857,0.7142857142857143],[0.0,0.0,0.0,1.0,0.0],[0.0,0.0,0.0,0.0,1.0],[0.0,0.0,0.0074487895716946,0.0186219739292365,0.9739292364990689],[0.0,0.0,0.022222222222222223,0.05,0.9277777777777778],[0.0,0.0,0.044444444444444446,0.1,0.8555555555555555],[0.0,0.0,0.0,0.47368421052631576,0.5263157894736842],[0.0,0.0,0.0,0.75,0.25],[0.0,0.0,0.0,0.9,0.1],[0.0,0.0,0.0,0.0,1.0],[0.0,0.0,0.0,0.0,1.0],[0.0,0.0,0.056338028169014086,0.0,0.9436619718309859],[0.0,0.0,0.2222222222222222,0.0,0.7777777777777778],[0.0,0.0,0.4444444444444444,0.0,0.5555555555555556],[0.0,0.0,0.0,0.0,1.0],[0.0,0.0,0.0,0.0,1.0],[0.0,0.0,0.0,0.0,1.0],[0.0,0.0,0.0,0.0028011204481792717,0.9971988795518207],[0.0,0.0,0.0,0.02,0.98],[0.0,0.0,0.0,0.03571428571428571,0.9642857142857143],[0.0,0.0,0.0,0.1111111111111111,0.8888888888888888],[0.0,0.0,0.0,0.16666666666666666,0.8333333333333334],[0.0,0.0,0.0,0.0,1.0],[0.0,0.0,0.0,0.0,1.0],[0.0,0.0,0.0,0.0,1.0],[0.0,0.0,0.0,0.0,1.0],[0.0,0.0,0.0037209302325581397,0.04837209302325581,0.947906976744186],[0.0,0.0,0.0121580547112462,0.1458966565349544,0.8419452887537994],[0.0,0.0,0.01951219512195122,0.23414634146341465,0.7463414634146341],[0.0,0.0,0.014285714285714285,0.5285714285714286,0.45714285714285713],[0.0,0.0,0.0,0.28,0.72],[0.0,0.0,0.0,0.4666666666666667,0.5333333333333333],[0.0,0.0,0.0,0.0,1.0],[0.0,0.0,0.0,0.7777777777777778,0.2222222222222222],[0.0,0.0,0.0,0.3333333333333333,0.6666666666666666],[0.0,0.0,0.0,1.0,0.0],[0.0,0.0,0.0,0.0,1.0],[0.0,0.0,0.022222222222222223,0.6666666666666666,0.3111111111111111],[0.0,0.0,0.025,0.75,0.225],[0.0,0.0,0.03125,0.875,0.09375],[0.0,0.0,0.1,0.6,0.3],[0.0,0.0,0.0,1.0,0.0],[0.0,0.0,0.0,0.25,0.75],[0.0,0.0,0.0,1.0,0.0],[0.0,0.0,0.0,0.0,1.0],[0.0,0.0,0.0,0.0,1.0],[0.0,0.0,0.022222222222222223,0.08148148148148149,0.8962962962962963],[0.0,0.0,0.030303030303030304,0.15151515151515152,0.8181818181818182],[0.0,0.0,0.05714285714285714,0.2857142857142857,0.6571428571428571],[0.0,0.0,0.0,0.0,1.0],[0.0,0.0,0.125,0.625,0.25],[0.0,0.0,0.15384615384615385,0.7692307692307693,0.07692307692307693],[0.0,0.0,0.0,0.0,1.0],[0.0,0.0,0.0,0.0,1.0],[0.0,0.0,0.014492753623188406,0.014492753623188406,0.9710144927536232],[0.0,0.0,0.016129032258064516,0.0,0.9838709677419355],[0.0,0.0,0.0,0.0,1.0],[0.0,0.0,0.25,0.0,0.75],[0.0,0.0,1.0,0.0,0.0],[0.0,0.0,0.0,0.0,1.0],[0.0,0.0,0.0,0.14285714285714285,0.8571428571428571],[0.0,0.0,0.0,0.0,1.0],[0.0,0.0,0.0,1.0,0.0],[0.0,0.0,0.0,0.0,1.0],[0.0,0.0,0.0,0.005361930294906166,0.9946380697050938],[0.0,0.0,0.0,0.3333333333333333,0.6666666666666666],[0.0,0.0,0.0,0.0,1.0],[0.0,0.0,0.0,1.0,0.0],[0.0,0.0,0.0,0.004037685060565276,0.9959623149394348],[0.0,0.0,0.0,0.046875,0.953125],[0.0,0.0,0.0,0.0,1.0],[0.0,0.0,0.0,0.15,0.85],[0.0,0.0,0.0,1.0,0.0],[0.0,0.0,0.0,0.0,1.0],[0.0,0.0,0.0,0.0,1.0]],"threshold":[0.5,1.080567717552185,0.663841187953949,-0.5,0.05912160873413086,0.9186417162418365,-0.13768834620714188,-0.18895164132118225,-2.0,-2.0,-0.12923435494303703,-2.0,-2.0,0.292992003262043,2.5849626064300537,-2.0,-2.0,-2.0,-0.1975308582186699,0.19405030459165573,-2.0,-0.1289537250995636,-2.0,-2.0,-0.3621717542409897,-0.10601865872740746,-2.0,-2.0,0.9885209798812866,-2.0,-2.0,0.03333333507180214,1.185921847820282,0.4619724899530411,0.3536759614944458,-2.0,-2.0,-0.6056680083274841,-2.0,-2.0,0.07304805889725685,1.1317947506904602,-2.0,-2.0,0.953445315361023,-2.0,-2.0,0.8604651093482971,0.378235399723053,0.1212097592651844,-2.0,-2.0,0.8438386023044586,-2.0,-2.0,-0.18509384989738464,-2.0,-2.0,0.8506892323493958,-0.1952216923236847,0.7719796597957611,0.08411668986082077,-0.20012930035591125,-2.0,-2.0,-0.3973021060228348,-2.0,-2.0,0.6489768177270889,-0.5,-2.0,-2.0,-0.3334280997514725,-2.0,-2.0,0.18953846395015717,0.42370495200157166,0.5,-2.0,-2.0,1.2160493731498718,-2.0,-2.0,0.7719796597957611,-0.3334280997514725,-2.0,-2.0,0.6609640717506409,-2.0,-2.0,1.5192043781280518,0.7217546999454498,0.6607521772384644,0.48002542555332184,-2.0,-2.0,-2.0,-2.0,-2.0,-0.09948892146348953,0.584986686706543,0.29107046127319336,-0.20347725600004196,0.10000000149011612,-0.2824516221880913,-2.0,-2.0,-2.0,0.5,-0.09662365540862083,-2.0,-2.0,-2.0,0.7596899271011353,-2.0,1.2728707194328308,-2.0,-2.0,-0.5,-2.0,1.3998082280158997,1.3262967467308044,-0.35185185074806213,-2.0,-2.0,-2.0,0.9347475171089172,-2.0,1.0188435316085815,-2.0,-2.0,0.2924812436103821,0.17056823521852493,0.0448226872831583,0.5276459455490112,1.2319712042808533,-2.0,-2.0,-2.0,1.2807170748710632,0.18579953163862228,-2.0,-2.0,-2.0,-2.0,-0.30747032165527344,0.5493061542510986,-0.04501166753470898,0.7187073826789856,-2.0,-2.0,-2.0,-2.0,-2.0,0.18019547313451767,0.9040790796279907,-0.10561803355813026,0.1212097592651844,0.08760343492031097,0.35880595445632935,-2.0,-0.07694296166300774,-2.0,-2.0,-2.0,1.1544342637062073,0.2554347813129425,-0.5023754686117172,-2.0,-2.0,0.04037683457136154,-2.0,-2.0,-2.0,-0.5,0.4368370920419693,0.27175580710172653,-2.0,0.05924067273736,-2.0,-2.0,-2.0,1.28713721036911,0.33497941493988037,-2.0,0.1227477453649044,-2.0,-2.0,0.16049382835626602,-2.0,-2.0,-2.0,-0.5994889289140701,-0.1819910854101181,-2.0,-2.0,-0.13359686732292175,0.3526690900325775,-2.0,0.8341800570487976,-2.0,-2.0,-2.0]},{"children_left":[1,2,3,4,5,6,7,8,-1,-1,11,-1,-1,14,15,-1,-1,18,-1,-1,21,22,23,-1,-1,26,-1,-1,29,30,-1,-1,33,-1,-1,36,37,38,39,-1,-1,42,-1,-1,-1,46,47,48,-1,-1,51,-1,-1,-1,55,56,57,58,59,-1,-1,62,-1,-1,65,66,-1,-1,69,-1,-1,72,73,74,-1,-1,77,-1,-1,80,81,-1,-1,84,-1,-1,87,88,89,90,-1,-1,-1,94,95,-1,-1,98,-1,-1,101,102,-1,104,-1,-1,107,108,-1,-1,111,-1,-1,114,115,116,117,118,119,-1,-1,122,-1,-1,125,126,-1,-1,129,-1,-1,-1,133,134,135,136,-1,-1,139,-1,-1,142,143,-1,-1,146,-1,-1,-1,150,151,152,153,154,-1,-1,157,-1,-1,160,-1,162,-1,-1,165,166,-1,168,-1,-1,171,-1,-1,174,-1,176,177,-1,-1,-1,181,182,183,184,-1,186,-1,-1,-1,190,191,192,193,194,-1,-1,-1,198,199,-1,-1,202,-1,-1,-1,-1,-1],"children_right":[180,113,54,35,20,13,10,9,-1,-1,12,-1,-1,17,16,-1,-1,19,-1,-1,28,25,24,-1,-1,27,-1,-1,32,31,-1,-1,34,-1,-1,45,44,41,40,-1,-1,43,-1,-1,-1,53,50,49,-1,-1,52,-1,-1,-1,86,71,64,61,60,-1,-1,63,-1,-1,68,67,-1,-1,70,-1,-1,79,76,75,-1,-1,78,-1,-1,83,82,-1,-1,85,-1,-1,100,93,92,91,-1,-1,-1,97,96,-1,-1,99,-1,-1,106,103,-1,105,-1,-1,110,109,-1,-1,112,-1,-1,149,132,131,124,121,120,-1,-1,123,-1,-1,128,127,-1,-1,130,-1,-1,-1,148,141,138,137,-1,-1,140,-1,-1,145,144,-1,-1,147,-1,-1,-1,173,164,159,156,155,-1,-1,158,-1,-1,161,-1,163,-1,-1,170,167,-1,169,-1,-1,172,-1,-1,175,-1,179,178,-1,-1,-1,206,189,188,185,-1,187,-1,-1,-1,205,204,197,196,195,-1,-1,-1,201,200,-1,-1,203,-1,-1,-1,-1,-1],"feature":[19,11,3,16,13,15,9,22,-2,-2,20,-2,-2,13,20,-2,-2,0,-2,-2,15,0,10,-2,-2,0,-2,-2,10,0,-2,-2,15,-2,-2,18,25,12,0,-2,-2,8,-2,-2,-2,20,16,9,-2,-2,18,-2,-2,-2,9,21,6,6,18,-2,-2,7,-2,-2,13,6,-2,-2,6,-2,-2,24,25,3,-2,-2,13,-2,-2,25,3,-2,-2,25,-2,-2,10,4,9,24,-2,-2,-2,9,6,-2,-2,13,-2,-2,24,24,-2,25,-2,-2,24,6,-2,-2,13,-2,-2,22,20,10,12,20,13,-2,-2,10,-2,-2,23,13,-2,-2,8,-2,-2,-2,14,16,13,6,-2,-2,12,-2,-2,13,25,-2,-2,24,-2,-2,-2,10,16,11,21,0,-2,-2,7,-2,-2,8,-2,11,-2,-2,25,22,-2,18,-2,-2,6,-2,-2,16,-2,18,10,-2,-2,-2,0,10,24,25,-2,11,-2,-2,-2,15,13,6,22,25,-2,-2,-2,16,19,-2,-2,21,-2,-2,-2,-2,-2],"leaf_values":[[0.199,0.1205,0.16325,0.1455,0.37175],[0.2308249963752356,0.13977091489053212,0.18906771059881108,0.16021458605190664,0.28012179208351456],[0.27085461355124274,0.163772557030984,0.20429009193054137,0.1544092611508342,0.20667347633639768],[0.3611038791981255,0.10023431398073418,0.10413954699297058,0.1504816454048425,0.28404061442332723],[0.4097488921713442,0.1137370753323486,0.11521418020679468,0.15686853766617428,0.20443131462333824],[0.0,0.0,0.005698005698005698,0.32763532763532766,0.6666666666666666],[0.0,0.0,0.012698412698412698,0.6444444444444445,0.34285714285714286],[0.0,0.0,0.0,0.27631578947368424,0.7236842105263158],[0.0,0.0,0.0,0.35,0.65],[0.0,0.0,0.0,0.0,1.0],[0.0,0.0,0.016736401673640166,0.7615062761506276,0.2217573221757322],[0.0,0.0,0.018018018018018018,0.8198198198198198,0.16216216216216217],[0.0,0.0,0.0,0.0,1.0],[0.0,0.0,0.0,0.06976744186046512,0.9302325581395349],[0.0,0.0,0.0,0.16666666666666666,0.8333333333333334],[0.0,0.0,0.0,0.5,0.5],[0.0,0.0,0.0,0.0,1.0],[0.0,0.0,0.0,0.06666666666666667,0.9333333333333333],[0.0,0.0,0.0,0.1358695652173913,0.8641304347826086],[0.0,0.0,0.0,0.0,1.0],[0.5169586284010436,0.143496086470369,0.14386880357808424,0.11218784942228849,0.08348863212821468],[0.5561797752808989,0.15409309791332262,0.15008025682182985,0.10995184590690209,0.02969502407704655],[0.633552014995314,0.13823805060918462,0.12652296157450796,0.08622305529522024,0.015463917525773196],[0.9900990099009901,0.0049504950495049506,0.0049504950495049506,0.0,0.0],[0.5502890173410404,0.16936416184971098,0.15491329479768787,0.10635838150289018,0.01907514450867052],[0.09497206703910614,0.24860335195530725,0.2905027932960894,0.25139664804469275,0.11452513966480447],[0.14655172413793102,0.3577586206896552,0.33620689655172414,0.11637931034482758,0.04310344827586207],[0.0,0.047619047619047616,0.20634920634920634,0.5,0.24603174603174602],[0.005235602094240838,0.005235602094240838,0.06282722513089005,0.14136125654450263,0.7853403141361257],[0.0,0.0,0.0,0.9166666666666666,0.08333333333333333],[0.0,0.0,0.0,0.0,1.0],[0.0,0.0,0.0,1.0,0.0],[0.00558659217877095,0.00558659217877095,0.0670391061452514,0.0893854748603352,0.8324022346368715],[0.012987012987012988,0.012987012987012988,0.15584415584415584,0.12987012987012986,0.6883116883116883],[0.0,0.0,0.0,0.058823529411764705,0.9411764705882353],[0.0,0.0,0.021929824561403508,0.10307017543859649,0.875],[0.0,0.0,0.09302325581395349,0.3488372093023256,0.5581395348837209],[0.0,0.0,0.12307692307692308,0.46153846153846156,0.4153846153846154],[0.0,0.0,0.0,0.15,0.85],[0.0,0.0,0.0,0.375,0.625],[0.0,0.0,0.0,0.0,1.0],[0.0,0.0,0.17777777777777778,0.6,0.2222222222222222],[0.0,0.0,1.0,0.0,0.0],[0.0,0.0,0.11904761904761904,0.6428571428571429,0.23809523809523808],[0.0,0.0,0.0,0.0,1.0],[0.0,0.0,0.005405405405405406,0.04594594594594595,0.9486486486486486],[0.0,0.0,0.009569377990430622,0.08133971291866028,0.9090909090909091],[0.0,0.0,0.04878048780487805,0.36585365853658536,0.5853658536585366],[0.0,0.0,0.0625,0.46875,0.46875],[0.0,0.0,0.0,0.0,1.0],[0.0,0.0,0.0,0.011904761904761904,0.9880952380952381],[0.0,0.0,0.0,0.0,1.0],[0.0,0.0,0.0,0.25,0.75],[0.0,0.0,0.0,0.0,1.0],[0.10034431874077718,0.2838170191834727,0.39350713231677326,0.161829808165273,0.060501721593703886],[0.06086956521739131,0.3707509881422925,0.42371541501976284,0.11067193675889328,0.03399209486166008],[0.12040133779264214,0.47157190635451507,0.3093645484949833,0.07692307692307693,0.021739130434782608],[0.15789473684210525,0.5789473684210527,0.17162471395881007,0.06864988558352403,0.02288329519450801],[0.025,0.125,0.65,0.1,0.1],[0.0,0.15625,0.71875,0.03125,0.09375],[0.125,0.0,0.375,0.375,0.125],[0.1712846347607053,0.6246851385390428,0.12342569269521411,0.0654911838790932,0.015113350125944584],[0.17480719794344474,0.6323907455012854,0.11825192802056556,0.06426735218508997,0.010282776349614395],[0.0,0.25,0.375,0.125,0.25],[0.018633540372670808,0.18012422360248448,0.6832298136645962,0.09937888198757763,0.018633540372670808],[0.0,0.1267605633802817,0.7535211267605634,0.09859154929577464,0.02112676056338028],[0.0,0.3103448275862069,0.5517241379310345,0.08620689655172414,0.05172413793103448],[0.0,0.0,0.8928571428571429,0.10714285714285714,0.0],[0.15789473684210525,0.5789473684210527,0.15789473684210525,0.10526315789473684,0.0],[0.6,0.0,0.0,0.4,0.0],[0.0,0.7857142857142857,0.21428571428571427,0.0,0.0],[0.0074962518740629685,0.280359820089955,0.5262368815592204,0.1409295352323838,0.044977511244377814],[0.00825082508250825,0.3085808580858086,0.5561056105610561,0.0858085808580858,0.041254125412541254],[0.0,0.009950248756218905,0.9104477611940298,0.07960199004975124,0.0],[0.0,0.01020408163265306,0.9336734693877551,0.05612244897959184,0.0],[0.0,0.0,0.0,1.0,0.0],[0.012345679012345678,0.4567901234567901,0.3802469135802469,0.08888888888888889,0.06172839506172839],[0.01644736842105263,0.5822368421052632,0.28289473684210525,0.039473684210526314,0.07894736842105263],[0.0,0.07920792079207921,0.6732673267326733,0.2376237623762376,0.009900990099009901],[0.0,0.0,0.22950819672131148,0.6885245901639344,0.08196721311475409],[0.0,0.0,0.037037037037037035,0.8148148148148148,0.14814814814814814],[0.0,0.0,0.0,0.84,0.16],[0.0,0.0,0.5,0.5,0.0],[0.0,0.0,0.38235294117647056,0.5882352941176471,0.029411764705882353],[0.0,0.0,0.6666666666666666,0.3333333333333333,0.0],[0.0,0.0,0.28,0.68,0.04],[0.16536458333333334,0.140625,0.34375,0.24609375,0.10416666666666667],[0.0,0.04672897196261682,0.38317757009345793,0.42990654205607476,0.14018691588785046],[0.0,0.0,0.021739130434782608,0.6304347826086957,0.34782608695652173],[0.0,0.0,0.02631578947368421,0.7631578947368421,0.21052631578947367],[0.0,0.0,0.0,0.2857142857142857,0.7142857142857143],[0.0,0.0,0.03225806451612903,0.8709677419354839,0.0967741935483871],[0.0,0.0,0.0,0.0,1.0],[0.0,0.05952380952380952,0.48214285714285715,0.375,0.08333333333333333],[0.0,0.08547008547008547,0.3504273504273504,0.5042735042735043,0.05982905982905983],[0.0,0.05454545454545454,0.5636363636363636,0.2727272727272727,0.10909090909090909],[0.0,0.11290322580645161,0.16129032258064516,0.7096774193548387,0.016129032258064516],[0.0,0.0,0.7843137254901961,0.0784313725490196,0.13725490196078433],[0.0,0.0,0.0,0.0,1.0],[0.0,0.0,0.9090909090909091,0.09090909090909091,0.0],[0.2292418772563177,0.17689530685920576,0.3285198555956679,0.17509025270758122,0.09025270758122744],[0.0,0.01904761904761905,0.1619047619047619,0.45714285714285713,0.3619047619047619],[0.0,0.0,0.0,0.0,1.0],[0.0,0.021052631578947368,0.17894736842105263,0.5052631578947369,0.29473684210526313],[0.0,0.0,0.3333333333333333,0.6,0.06666666666666667],[0.0,0.04,0.04,0.42,0.5],[0.2828507795100223,0.21380846325167038,0.3674832962138085,0.1091314031180401,0.026726057906458798],[0.09740259740259741,0.13636363636363635,0.5844155844155844,0.14935064935064934,0.032467532467532464],[0.0,0.0,0.058823529411764705,0.8235294117647058,0.11764705882352941],[0.10948905109489052,0.15328467153284672,0.6496350364963503,0.06569343065693431,0.021897810218978103],[0.37966101694915255,0.2542372881355932,0.2542372881355932,0.08813559322033898,0.023728813559322035],[0.46875,0.24553571428571427,0.20535714285714285,0.06696428571428571,0.013392857142857142],[0.09859154929577464,0.28169014084507044,0.4084507042253521,0.15492957746478872,0.056338028169014086],[0.0009775171065493646,0.0019550342130987292,0.10166177908113393,0.1935483870967742,0.7018572825024438],[0.0,0.004842615012106538,0.20823244552058112,0.43099273607748184,0.3559322033898305],[0.0,0.006097560975609756,0.24695121951219512,0.5182926829268293,0.22865853658536586],[0.0,0.006802721088435374,0.2755102040816326,0.5782312925170068,0.13945578231292516],[0.0,0.00851063829787234,0.3404255319148936,0.574468085106383,0.07659574468085106],[0.0,0.006024096385542169,0.26506024096385544,0.6927710843373494,0.03614457831325301],[0.0,0.015873015873015872,0.6825396825396826,0.20634920634920634,0.09523809523809523],[0.0,0.0,0.009708737864077669,0.9902912621359223,0.0],[0.0,0.014492753623188406,0.5217391304347826,0.2898550724637681,0.17391304347826086],[0.0,0.02040816326530612,0.673469387755102,0.20408163265306123,0.10204081632653061],[0.0,0.0,0.15,0.5,0.35],[0.0,0.0,0.01694915254237288,0.5932203389830508,0.3898305084745763],[0.0,0.0,0.02127659574468085,0.6808510638297872,0.2978723404255319],[0.0,0.0,0.023255813953488372,0.7441860465116279,0.23255813953488372],[0.0,0.0,0.0,0.0,1.0],[0.0,0.0,0.0,0.25,0.75],[0.0,0.0,0.0,0.5,0.5],[0.0,0.0,0.0,0.0,1.0],[0.0,0.0,0.0,0.0,1.0],[0.0,0.0,0.058823529411764705,0.09411764705882353,0.8470588235294118],[0.0,0.0,0.1282051282051282,0.20512820512820512,0.6666666666666666],[0.0,0.0,0.0,0.21428571428571427,0.7857142857142857],[0.0,0.0,0.0,0.625,0.375],[0.0,0.0,0.0,1.0,0.0],[0.0,0.0,0.0,0.0,1.0],[0.0,0.0,0.0,0.05,0.95],[0.0,0.0,0.0,0.0,1.0],[0.0,0.0,0.0,1.0,0.0],[0.0,0.0,0.45454545454545453,0.18181818181818182,0.36363636363636365],[0.0,0.0,0.8333333333333334,0.0,0.16666666666666666],[0.0,0.0,0.0,0.0,1.0],[0.0,0.0,1.0,0.0,0.0],[0.0,0.0,0.0,0.4,0.6],[0.0,0.0,0.0,0.0,1.0],[0.0,0.0,0.0,1.0,0.0],[0.0,0.0,0.0,0.0,1.0],[0.001639344262295082,0.0,0.029508196721311476,0.03278688524590164,0.9360655737704918],[0.006060606060606061,0.0,0.10909090909090909,0.11515151515151516,0.7696969696969697],[0.0,0.0,0.18666666666666668,0.25333333333333335,0.56],[0.0,0.0,0.52,0.28,0.2],[0.0,0.0,0.7647058823529411,0.17647058823529413,0.058823529411764705],[0.0,0.0,0.0,0.6666666666666666,0.3333333333333333],[0.0,0.0,0.9285714285714286,0.07142857142857142,0.0],[0.0,0.0,0.0,0.5,0.5],[0.0,0.0,0.0,0.0,1.0],[0.0,0.0,0.0,1.0,0.0],[0.0,0.0,0.02,0.24,0.74],[0.0,0.0,0.0,1.0,0.0],[0.0,0.0,0.021739130434782608,0.17391304347826086,0.8043478260869565],[0.0,0.0,0.03225806451612903,0.25806451612903225,0.7096774193548387],[0.0,0.0,0.0,0.0,1.0],[0.011111111111111112,0.0,0.044444444444444446,0.0,0.9444444444444444],[0.0125,0.0,0.0125,0.0,0.975],[0.0,0.0,1.0,0.0,0.0],[0.012658227848101266,0.0,0.0,0.0,0.9873417721518988],[0.09090909090909091,0.0,0.0,0.0,0.9090909090909091],[0.0,0.0,0.0,0.0,1.0],[0.0,0.0,0.3,0.0,0.7],[0.0,0.0,0.0,0.0,1.0],[0.0,0.0,1.0,0.0,0.0],[0.0,0.0,0.0,0.0022471910112359553,0.9977528089887641],[0.0,0.0,0.0,0.0,1.0],[0.0,0.0,0.0,0.005235602094240838,0.9947643979057592],[0.0,0.0,0.0,0.08333333333333333,0.9166666666666666],[0.0,0.0,0.0,1.0,0.0],[0.0,0.0,0.0,0.0,1.0],[0.0,0.0,0.0,0.0,1.0],[0.0,0.0,0.001813236627379873,0.05349048050770626,0.9446962828649139],[0.0,0.0,0.007246376811594203,0.213768115942029,0.7789855072463768],[0.0,0.0,0.01282051282051282,0.0,0.9871794871794872],[0.0,0.0,0.0625,0.0,0.9375],[0.0,0.0,0.0,0.0,1.0],[0.0,0.0,0.25,0.0,0.75],[0.0,0.0,0.0,0.0,1.0],[0.0,0.0,1.0,0.0,0.0],[0.0,0.0,0.0,0.0,1.0],[0.0,0.0,0.005050505050505051,0.29797979797979796,0.696969696969697],[0.0,0.0,0.00625,0.36875,0.625],[0.0,0.0,0.00909090909090909,0.5363636363636364,0.45454545454545453],[0.0,0.0,0.03225806451612903,0.22580645161290322,0.7419354838709677],[0.0,0.0,0.05555555555555555,0.3888888888888889,0.5555555555555556],[0.0,0.0,0.07142857142857142,0.5,0.42857142857142855],[0.0,0.0,0.0,0.0,1.0],[0.0,0.0,0.0,0.0,1.0],[0.0,0.0,0.0,0.6582278481012658,0.34177215189873417],[0.0,0.0,0.0,0.16666666666666666,0.8333333333333334],[0.0,0.0,0.0,0.6666666666666666,0.3333333333333333],[0.0,0.0,0.0,0.0,1.0],[0.0,0.0,0.0,0.746268656716418,0.2537313432835821],[0.0,0.0,0.0,0.4666666666666667,0.5333333333333333],[0.0,0.0,0.0,0.8269230769230769,0.17307692307692307],[0.0,0.0,0.0,0.0,1.0],[0.0,0.0,0.0,0.0,1.0],[0.0,0.0,0.0,0.0,1.0]],"threshold":[5.937748574069701e-05,0.8440901637077332,0.5566413849592209,1.0897311568260193,-0.4940352886915207,0.5,-0.3690609037876129,0.5917302966117859,-2.0,-2.0,0.5604841709136963,-2.0,-2.0,-0.49487385153770447,-0.14773550629615784,-2.0,-2.0,-0.08761899918317795,-2.0,-2.0,0.0714285746216774,0.5433713495731354,-0.5169661045074463,-2.0,-2.0,1.0473227500915527,-2.0,-2.0,-0.4654188007116318,-0.46200816333293915,-2.0,-2.0,0.8499999940395355,-2.0,-2.0,0.7924812436103821,5.4502058029174805,0.17289173230528831,-0.46200816333293915,-2.0,-2.0,-0.9777243137359619,-2.0,-2.0,-2.0,0.12248904258012772,1.259090006351471,0.5616737306118011,-2.0,-2.0,5.10791802406311,-2.0,-2.0,-2.0,-0.10095248371362686,1.356161653995514,1.1975308656692505,-0.2716049402952194,-0.5,-2.0,-2.0,-0.549193799495697,-2.0,-2.0,-0.3370795249938965,1.47530859708786,-2.0,-2.0,1.4135802388191223,-2.0,-2.0,0.800000011920929,-0.194314643740654,1.3286210298538208,-2.0,-2.0,-0.06824037432670593,-2.0,-2.0,-0.15055932104587555,0.8413031101226807,-2.0,-2.0,-0.13558483868837357,-2.0,-2.0,-0.36026830971241,-0.5,1.0713497400283813,-0.36666665971279144,-2.0,-2.0,-2.0,1.1499198079109192,0.2469135820865631,-2.0,-2.0,-0.4463631212711334,-2.0,-2.0,-0.39390476047992706,-0.779066801071167,-2.0,0.2924976199865341,-2.0,-2.0,0.08888888731598854,-0.35185185074806213,-2.0,-2.0,0.283192977309227,-2.0,-2.0,-0.07837837934494019,0.004978427663445473,1.1050159335136414,1.5471435189247131,-0.1628284975886345,0.935804545879364,-2.0,-2.0,0.7735616564750671,-2.0,-2.0,1.160964012145996,1.2124879956245422,-2.0,-2.0,0.08411668986082077,-2.0,-2.0,-2.0,0.5,-0.17148282751441002,0.6327812373638153,1.2037037014961243,-2.0,-2.0,0.4785565733909607,-2.0,-2.0,0.8444561958312988,-0.05044839158654213,-2.0,-2.0,-0.11000001430511475,-2.0,-2.0,-2.0,0.8721302151679993,0.4451002925634384,0.9708582162857056,-0.07078434526920319,-0.46200816333293915,-2.0,-2.0,-0.12641744315624237,-2.0,-2.0,-0.9777243137359619,-2.0,1.3254547119140625,-2.0,-2.0,0.9234567582607269,0.13787162117660046,-2.0,1.1609640717506409,-2.0,-2.0,-0.3024691343307495,-2.0,-2.0,0.6903782486915588,-2.0,0.7924812436103821,1.0323945879936218,-2.0,-2.0,-2.0,0.9724105894565582,-0.1154116801917553,-0.059728506952524185,0.2096232958137989,-2.0,-0.4004249572753906,-2.0,-2.0,-2.0,0.0833333358168602,0.49562868475914,-0.20370370149612427,-0.0377533781575039,2.9152263402938843,-2.0,-2.0,-2.0,-0.17148282751441002,0.4166666716337204,-2.0,-2.0,-0.0737093947827816,-2.0,-2.0,-2.0,-2.0,-2.0]},{"children_left":[1,2,3,4,-1,6,7,8,9,-1,-1,-1,-1,-1,15,16,17,-1,19,-1,21,-1,-1,-1,-1,26,27,28,29,-1,-1,32,-1,34,35,-1,-1,-1,-1,-1,41,42,43,44,45,46,47,-1,-1,50,-1,-1,53,54,-1,-1,57,-1,-1,60,61,62,-1,-1,65,-1,-1,68,69,-1,-1,72,-1,-1,75,76,77,78,-1,-1,81,-1,-1,84,85,-1,-1,88,-1,-1,91,92,93,-1,-1,96,-1,-1,99,100,-1,-1,103,-1,-1,106,107,-1,-1,-1,111,112,113,114,115,-1,117,-1,-1,120,121,-1,-1,-1,125,126,-1,128,-1,-1,-1,-1,133,134,135,136,137,-1,-1,140,-1,-1,-1,-1,-1],"children_right":[40,25,14,5,-1,13,12,11,10,-1,-1,-1,-1,-1,24,23,18,-1,20,-1,22,-1,-1,-1,-1,39,38,31,30,-1,-1,33,-1,37,36,-1,-1,-1,-1,-1,110,105,74,59,52,49,48,-1,-1,51,-1,-1,56,55,-1,-1,58,-1,-1,67,64,63,-1,-1,66,-1,-1,71,70,-1,-1,73,-1,-1,90,83,80,79,-1,-1,82,-1,-1,87,86,-1,-1,89,-1,-1,98,95,94,-1,-1,97,-1,-1,102,101,-1,-1,104,-1,-1,109,108,-1,-1,-1,132,131,124,119,116,-1,118,-1,-1,123,122,-1,-1,-1,130,127,-1,129,-1,-1,-1,-1,144,143,142,139,138,-1,-1,141,-1,-1,-1,-1,-1],"feature":[29,10,8,20,-2,25,6,0,25,-2,-2,-2,-2,-2,0,14,9,-2,5,-2,20,-2,-2,-2,-2,7,0,10,13,-2,-2,4,-2,22,21,-2,-2,-2,-2,-2,0,10,7,24,4,3,16,-2,-2,21,-2,-2,24,16,-2,-2,18,-2,-2,6,11,22,-2,-2,24,-2,-2,13,21,-2,-2,11,-2,-2,10,13,23,17,-2,-2,21,-2,-2,13,5,-2,-2,5,-2,-2,11,28,23,-2,-2,11,-2,-2,7,17,-2,-2,7,-2,-2,20,11,-2,-2,-2,22,19,10,18,21,-2,6,-2,-2,0,25,-2,-2,-2,13,22,-2,11,-2,-2,-2,-2,18,25,28,16,5,-2,-2,13,-2,-2,-2,-2,-2],"leaf_values":[[0.198125,0.12325,0.166875,0.146625,0.365125],[0.0,0.0,0.0,0.03276955602536998,0.96723044397463],[0.0,0.0,0.0,0.10396039603960396,0.8960396039603961],[0.0,0.0,0.0,0.2878787878787879,0.7121212121212122],[0.0,0.0,0.0,0.0,1.0],[0.0,0.0,0.0,0.4222222222222222,0.5777777777777777],[0.0,0.0,0.0,0.6129032258064516,0.3870967741935484],[0.0,0.0,0.0,0.8636363636363636,0.13636363636363635],[0.0,0.0,0.0,0.7857142857142857,0.21428571428571427],[0.0,0.0,0.0,0.0,1.0],[0.0,0.0,0.0,1.0,0.0],[0.0,0.0,0.0,1.0,0.0],[0.0,0.0,0.0,0.0,1.0],[0.0,0.0,0.0,0.0,1.0],[0.0,0.0,0.0,0.014705882352941176,0.9852941176470589],[0.0,0.0,0.0,0.03389830508474576,0.9661016949152542],[0.0,0.0,0.0,0.07692307692307693,0.9230769230769231],[0.0,0.0,0.0,0.0,1.0],[0.0,0.0,0.0,0.10526315789473684,0.8947368421052632],[0.0,0.0,0.0,0.0,1.0],[0.0,0.0,0.0,0.2222222222222222,0.7777777777777778],[0.0,0.0,0.0,0.0,1.0],[0.0,0.0,0.0,1.0,0.0],[0.0,0.0,0.0,0.0,1.0],[0.0,0.0,0.0,0.0,1.0],[0.0,0.0,0.0,0.013440860215053764,0.9865591397849462],[0.0,0.0,0.0,0.03731343283582089,0.9626865671641791],[0.0,0.0,0.0,0.08064516129032258,0.9193548387096774],[0.0,0.0,0.0,0.75,0.25],[0.0,0.0,0.0,0.0,1.0],[0.0,0.0,0.0,1.0,0.0],[0.0,0.0,0.0,0.058333333333333334,0.9416666666666667],[0.0,0.0,0.0,0.0,1.0],[0.0,0.0,0.0,0.13725490196078433,0.8627450980392157],[0.0,0.0,0.0,0.3684210526315789,0.631578947368421],[0.0,0.0,0.0,0.25,0.75],[0.0,0.0,0.0,1.0,0.0],[0.0,0.0,0.0,0.0,1.0],[0.0,0.0,0.0,0.0,1.0],[0.0,0.0,0.0,0.0,1.0],[0.22469520839240148,0.13977884888006806,0.18925432378792176,0.1618939608732634,0.28437765806634535],[0.2608194832976798,0.1622511107454336,0.21902254401843016,0.1732762876419286,0.1846305742965279],[0.27560424274039297,0.17144844374891324,0.23143801078073378,0.1827508259433142,0.1387584767866458],[0.054945054945054944,0.3335488041370394,0.36005171299288946,0.10730446024563671,0.14414996767937943],[0.007407407407407408,0.0,0.014814814814814815,0.28888888888888886,0.6888888888888889],[0.014925373134328358,0.0,0.029850746268656716,0.5074626865671642,0.44776119402985076],[0.0,0.0,0.0,0.08695652173913043,0.9130434782608695],[0.0,0.0,0.0,1.0,0.0],[0.0,0.0,0.0,0.045454545454545456,0.9545454545454546],[0.022727272727272728,0.0,0.045454545454545456,0.7272727272727273,0.20454545454545456],[0.024390243902439025,0.0,0.04878048780487805,0.7804878048780488,0.14634146341463414],[0.0,0.0,0.0,0.0,1.0],[0.0,0.0,0.0,0.07352941176470588,0.9264705882352942],[0.0,0.0,0.0,0.03333333333333333,0.9666666666666667],[0.0,0.0,0.0,0.11764705882352941,0.8823529411764706],[0.0,0.0,0.0,0.0,1.0],[0.0,0.0,0.0,0.375,0.625],[0.0,0.0,0.0,1.0,0.0],[0.0,0.0,0.0,0.0,1.0],[0.059490084985835696,0.3654390934844193,0.39305949008498586,0.08994334277620397,0.09206798866855524],[0.07526881720430108,0.4780058651026393,0.270772238514174,0.09579667644183773,0.0801564027370479],[0.08087291399229782,0.5905006418485238,0.21951219512195122,0.03209242618741977,0.07702182284980745],[0.08377659574468085,0.6117021276595744,0.21808510638297873,0.027925531914893616,0.05851063829787234],[0.0,0.0,0.25925925925925924,0.14814814814814814,0.5925925925925926],[0.05737704918032787,0.11885245901639344,0.4344262295081967,0.29918032786885246,0.09016393442622951],[0.0,0.02654867256637168,0.7522123893805309,0.20353982300884957,0.017699115044247787],[0.10687022900763359,0.1984732824427481,0.16030534351145037,0.3816793893129771,0.15267175572519084],[0.017994858611825194,0.06940874035989718,0.7146529562982005,0.07455012853470437,0.12339331619537275],[0.02,0.07714285714285714,0.7942857142857143,0.05714285714285714,0.05142857142857143],[0.035175879396984924,0.135678391959799,0.6532663316582915,0.08542713567839195,0.09045226130653267],[0.0,0.0,0.9801324503311258,0.019867549668874173,0.0],[0.0,0.0,0.0,0.23076923076923078,0.7692307692307693],[0.0,0.0,0.0,0.75,0.25],[0.0,0.0,0.0,0.0,1.0],[0.35680304471931495,0.11179828734538534,0.1841103710751665,0.21051379638439582,0.1367745004757374],[0.4129353233830846,0.12465450525152018,0.17468214483139857,0.16887783305693754,0.11885019347705915],[0.0,0.011682242990654205,0.1261682242990654,0.5257009345794392,0.3364485981308411],[0.0,0.013404825737265416,0.1447721179624665,0.5924932975871313,0.24932975871313673],[0.0,0.01384083044982699,0.11072664359861592,0.726643598615917,0.14878892733564014],[0.0,0.011904761904761904,0.2619047619047619,0.13095238095238096,0.5952380952380952],[0.0,0.0,0.0,0.07272727272727272,0.9272727272727272],[0.0,0.0,0.0,0.021739130434782608,0.9782608695652174],[0.0,0.0,0.0,0.3333333333333333,0.6666666666666666],[0.4683385579937304,0.13981191222570533,0.1811912225705329,0.12100313479623824,0.0896551724137931],[0.9918032786885246,0.0,0.00546448087431694,0.0,0.00273224043715847],[0.0,0.0,1.0,0.0,0.0],[0.9972527472527473,0.0,0.0,0.0,0.0027472527472527475],[0.4004957507082153,0.15793201133144477,0.20396600566572237,0.136685552407932,0.10092067988668556],[0.014218009478672985,0.037914691943127965,0.46919431279620855,0.3222748815165877,0.15639810426540285],[0.4316877152698048,0.16762342135476463,0.182548794489093,0.12169919632606199,0.09644087256027555],[0.010238907849829351,0.032423208191126277,0.24232081911262798,0.46757679180887374,0.24744027303754265],[0.015873015873015872,0.05026455026455026,0.37037037037037035,0.29894179894179895,0.26455026455026454],[0.017341040462427744,0.05491329479768786,0.4046242774566474,0.3236994219653179,0.1994219653179191],[0.018575851393188854,0.058823529411764705,0.43343653250773995,0.34674922600619196,0.14241486068111456],[0.0,0.0,0.0,0.0,1.0],[0.0,0.0,0.0,0.03125,0.96875],[0.0,0.0,0.0,1.0,0.0],[0.0,0.0,0.0,0.0,1.0],[0.0,0.0,0.009615384615384616,0.7740384615384616,0.21634615384615385],[0.0,0.0,0.0,0.045454545454545456,0.9545454545454546],[0.0,0.0,0.0,0.16666666666666666,0.8333333333333334],[0.0,0.0,0.0,0.0,1.0],[0.0,0.0,0.010752688172043012,0.8602150537634409,0.12903225806451613],[0.0,0.0,0.011428571428571429,0.8971428571428571,0.09142857142857143],[0.0,0.0,0.0,0.2727272727272727,0.7272727272727273],[0.0,0.0,0.0,0.006134969325153374,0.9938650306748467],[0.0,0.0,0.0,0.043478260869565216,0.9565217391304348],[0.0,0.0,0.0,1.0,0.0],[0.0,0.0,0.0,0.0,1.0],[0.0,0.0,0.0,0.0,1.0],[0.0,0.0,0.0040941658137154556,0.09109518935516889,0.9048106448311156],[0.0,0.0,0.009029345372460496,0.18510158013544017,0.8058690744920993],[0.0,0.0,0.014545454545454545,0.29818181818181816,0.6872727272727273],[0.0,0.0,0.021164021164021163,0.41798941798941797,0.5608465608465608],[0.0,0.0,0.014705882352941176,0.5147058823529411,0.47058823529411764],[0.0,0.0,0.0,1.0,0.0],[0.0,0.0,0.01694915254237288,0.4406779661016949,0.5423728813559322],[0.0,0.0,0.011764705882352941,0.3411764705882353,0.6470588235294118],[0.0,0.0,0.030303030303030304,0.696969696969697,0.2727272727272727],[0.0,0.0,0.03773584905660377,0.16981132075471697,0.7924528301886793],[0.0,0.0,0.11764705882352941,0.5294117647058824,0.35294117647058826],[0.0,0.0,0.0,0.0,1.0],[0.0,0.0,0.14285714285714285,0.6428571428571429,0.21428571428571427],[0.0,0.0,0.0,0.0,1.0],[0.0,0.0,0.0,0.03488372093023256,0.9651162790697675],[0.0,0.0,0.0,0.23076923076923078,0.7692307692307693],[0.0,0.0,0.0,0.0,1.0],[0.0,0.0,0.0,0.75,0.25],[0.0,0.0,0.0,0.0,1.0],[0.0,0.0,0.0,1.0,0.0],[0.0,0.0,0.0,0.0,1.0],[0.0,0.0,0.0,0.0,1.0],[0.0,0.0,0.0,0.013108614232209739,0.9868913857677902],[0.0,0.0,0.0,0.06542056074766354,0.9345794392523364],[0.0,0.0,0.0,0.1,0.9],[0.0,0.0,0.0,0.4666666666666667,0.5333333333333333],[0.0,0.0,0.0,0.8333333333333334,0.16666666666666666],[0.0,0.0,0.0,0.0,1.0],[0.0,0.0,0.0,1.0,0.0],[0.0,0.0,0.0,0.2222222222222222,0.7777777777777778],[0.0,0.0,0.0,0.0,1.0],[0.0,0.0,0.0,1.0,0.0],[0.0,0.0,0.0,0.0,1.0],[0.0,0.0,0.0,0.0,1.0],[0.0,0.0,0.0,0.0,1.0]],"threshold":[-0.5,-0.5204770863056183,-0.5994889289140701,-0.18852972239255905,-2.0,0.3504236117005348,1.0185185074806213,-0.28496960550546646,-0.1669776365160942,-2.0,-2.0,-2.0,-2.0,-2.0,-0.33639730513095856,0.5,-0.08268192410469055,-2.0,-0.11240309849381447,-2.0,-0.1795617640018463,-2.0,-2.0,-2.0,-2.0,0.07016237080097198,-0.12923435494303703,-0.438243567943573,-0.4075075834989548,-2.0,-2.0,-0.5,-2.0,0.0903716217726469,-0.10809580981731415,-2.0,-2.0,-2.0,-2.0,-2.0,1.3812750577926636,1.0621246099472046,-0.549193799495697,0.18953846395015717,0.7924812436103821,0.5,-0.49537335336208344,-2.0,-2.0,1.8115500211715698,-2.0,-2.0,0.15085714310407639,-0.1918119490146637,-2.0,-2.0,-0.5,-2.0,-2.0,1.240740716457367,-0.050671493634581566,0.6424549520015717,-2.0,-2.0,0.3466666638851166,-2.0,-2.0,0.3719743937253952,1.474351406097412,-2.0,-2.0,0.7365700006484985,-2.0,-2.0,0.6180120706558228,-0.4933735579252243,1.564641535282135,-0.04503156803548336,-2.0,-2.0,0.16678892076015472,-2.0,-2.0,-0.49245062470436096,-0.3720930218696594,-2.0,-2.0,-0.3682170510292053,-2.0,-2.0,1.198366403579712,0.5,3.1380621194839478,-2.0,-2.0,0.5432874262332916,-2.0,-2.0,-0.2824516221880913,1.8493623733520508,-2.0,-2.0,0.5701623857021332,-2.0,-2.0,-0.15582501888275146,1.4275827407836914,-2.0,-2.0,-2.0,0.8452210426330566,5.2296880312496796e-05,0.8393994569778442,1.6961587071418762,0.0014986905152909458,-2.0,-0.25925925374031067,-2.0,-2.0,1.743247389793396,-0.08425403200089931,-2.0,-2.0,-2.0,0.673906683921814,0.08152157859876752,-2.0,0.6963907480239868,-2.0,-2.0,-2.0,-2.0,1.1609640717506409,5.4502058029174805,0.5,0.29927435517311096,-0.10852712951600552,-2.0,-2.0,-0.16359742730855942,-2.0,-2.0,-2.0,-2.0,-2.0]},{"children_left":[1,2,3,4,-1,6,7,8,9,-1,-1,-1,-1,14,15,-1,17,-1,-1,-1,21,-1,23,24,-1,-1,-1,28,29,30,31,32,33,-1,-1,36,-1,-1,39,40,-1,-1,43,-1,-1,46,-1,48,-1,50,-1,-1,53,54,55,56,-1,-1,59,-1,-1,62,63,-1,-1,66,-1,-1,69,70,71,-1,-1,74,-1,-1,77,78,-1,-1,-1,82,83,84,-1,-1,87,-1,-1,90,91,92,-1,94,-1,-1,97,-1,-1,100,101,-1,-1,-1,105,106,107,108,109,-1,111,-1,-1,114,-1,116,117,-1,-1,120,-1,-1,123,124,125,-1,-1,-1,129,130,131,-1,-1,-1,-1,136,137,-1,-1,-1,141,142,143,144,-1,146,147,-1,-1,-1,151,152,-1,154,-1,-1,-1,158,159,160,161,-1,-1,164,-1,-1,-1,168,169,170,-1,-1,173,-1,-1,-1,177,178,179,180,-1,-1,-1,184,185,-1,-1,-1,189,190,191,-1,193,-1,-1,-1,197,198,-1,200,-1,-1,-1],"children_right":[104,27,20,5,-1,13,12,11,10,-1,-1,-1,-1,19,16,-1,18,-1,-1,-1,22,-1,26,25,-1,-1,-1,81,52,45,38,35,34,-1,-1,37,-1,-1,42,41,-1,-1,44,-1,-1,47,-1,49,-1,51,-1,-1,68,61,58,57,-1,-1,60,-1,-1,65,64,-1,-1,67,-1,-1,76,73,72,-1,-1,75,-1,-1,80,79,-1,-1,-1,89,86,85,-1,-1,88,-1,-1,99,96,93,-1,95,-1,-1,98,-1,-1,103,102,-1,-1,-1,140,135,122,113,110,-1,112,-1,-1,115,-1,119,118,-1,-1,121,-1,-1,128,127,126,-1,-1,-1,134,133,132,-1,-1,-1,-1,139,138,-1,-1,-1,176,157,150,145,-1,149,148,-1,-1,-1,156,153,-1,155,-1,-1,-1,167,166,163,162,-1,-1,165,-1,-1,-1,175,172,171,-1,-1,174,-1,-1,-1,188,183,182,